640 24
new -0.053630996 -0.5143348 0.13618821 0.35725567 -1.9825331 0.6869141 0.9640127 0.9142813 -1.4160879 -3.808792 0.74090505 1.0826347 1.2354727 0.29919887 -0.33032697 0.9565746 -0.76962835 0.58526057 0.25099683 0.052175064 -1.7321634 1.79554 0.13069251 -0.038185026
guys -0.25744623 -0.12218765 0.54059374 0.20823479 -0.88853997 0.48957902 -0.07268402 -0.2671963 -0.2708193 1.3878251 0.4781032 -1.3989813 -1.6011173 0.5980261 0.5434796 0.7146756 -0.8492912 0.44000846 -0.4869345 -1.1003723 0.85061365 -0.3599718 -0.45353985 0.2686612
6 -0.8919381 -1.2291027 0.3514915 -0.08466217 -1.458396 1.1637983 -0.28728443 0.28656563 -0.14092106 1.4526186 0.561688 0.92711705 -0.77495396 0.2116518 0.652103 -2.031374 0.21640335 -0.3550478 -0.10357994 -0.27321494 -2.2297814 -0.109008476 0.64571655 1.3662018
start 0.6982608 0.22879039 -0.26761508 -0.6647692 -0.12391196 -1.362585 0.6460659 0.024179416 0.38145888 0.1783135 1.7259406 -0.7807265 0.83607614 -1.0138173 1.5217032 0.15039138 -1.3172888 -0.09075478 1.2179893 -0.106205076 -0.7611287 -0.3617629 -0.20252927 0.73084486
back 1.6616358 -0.03174399 -0.5010959 1.0003331 0.6644605 1.4229999 0.044996064 0.45037317 -0.80844516 -1.259136 0.20931633 -0.91497666 0.55514306 -0.15433082 1.2207587 -0.81375295 -0.49749812 -0.015016114 -0.68369764 0.37008357 0.55572975 -0.2279818 0.61028475 -0.9482853
some -1.1209629 0.8230092 -1.3407521 0.29849452 0.65057 -0.62416583 -0.25523752 -1.2085892 -0.34291843 -0.026036859 -0.24479358 -0.059356533 -0.6963955 -0.30530646 -0.83696496 -0.11493575 1.2235844 -0.09627354 0.9062896 -0.7147127 2.251828 -0.93459386 -0.6164887 -0.42500243
walk -0.15999529 -0.8429383 -0.5278493 0.7289507 1.6444699 0.13402319 -0.44299546 -0.3909095 -0.056473084 0.12482128 0.3557359 -1.1685984 -0.64541304 0.5719537 -0.712667 0.3730059 1.5592988 0.29153872 0.5297308 2.7543457 0.61153716 -0.5653138 1.0587381 0.35377875
crispy 0.87268335 -0.09781279 -0.42859998 0.36832264 0.7177458 -0.8087804 0.8032776 0.0721841 0.00089213013 1.3169135 1.1678276 -2.0300245 0.8333792 0.92225903 0.6133843 -1.5424111 -1.6598569 0.99601614 0.15663482 0.849226 -1.0344951 -2.2609866 -0.4950611 0.038909175
morning -0.012327481 1.2269601 0.6435712 0.79422516 0.79735106 0.9011068 -1.0524853 -1.6690881 -1.436651 -0.14444348 -1.3170335 -0.036504205 -1.7284924 1.4327146 -1.3911388 0.59903234 0.17283191 -0.07238229 0.8438771 -0.8442793 -0.9598726 1.7013646 0.92790586 0.13660538
cutlet 0.69649076 1.0517534 -1.3561003 -0.5316715 0.84481406 -0.845127 0.4886781 -0.7048874 -0.4335074 -0.4828698 -0.5637215 2.0830755 0.50493354 -0.23527478 0.809518 2.5522614 -1.1843812 0.9604204 -0.07018754 -1.5016465 0.5099746 1.2833962 -0.5252626 1.0894231
toking -0.8332704 0.54599285 -0.5572843 -0.11085804 -0.7769346 -0.53499925 -1.5726482 -0.19285518 -0.40531692 -1.4136266 0.9630688 -0.53913754 -1.5516044 0.8098828 -1.2269628 0.48060417 -1.1021432 -0.6593828 -1.7511168 0.58274674 -0.2170657 0.80833334 0.4727644 -0.444606
quite 0.86774653 0.56921375 1.5333287 -1.4573084 0.48969296 0.2541037 -0.347349 1.5397487 0.121449634 0.4959872 -0.07909682 -0.10544025 0.6735885 -1.8016387 0.21926853 -1.0598977 0.012843102 0.16211456 1.1822127 -0.74093705 0.064123236 -0.5539021 0.34893224 0.8728852
stamford 0.29213881 0.97836936 0.7159684 2.3266864 0.65050274 -1.8555893 -0.51010036 -1.0335969 0.41995135 -0.8474241 0.53198886 -0.043987036 -0.02810295 0.66183084 -2.3810704 -0.058715254 -0.08073805 -1.3389024 1.4005278 0.78074044 -1.0111637 0.08604801 1.9007293 0.0049768602
ms -0.0016151286 -0.56589776 0.031076787 -0.21097374 -0.333663 -0.29003966 -0.36040834 1.1268524 -0.42639965 0.36793116 -0.7613339 1.0457252 0.34899577 0.53461283 1.7255294 -0.6186187 -0.8511549 -0.86613715 0.52498186 -1.0067799 0.5014136 -0.23559669 -0.046565354 -1.3783664
goes -0.2836774 0.6506265 -0.085495576 1.3185515 -1.6338807 0.007044086 -1.2915094 0.78256315 1.5142105 0.36913916 -1.0714915 -0.5452682 -1.776853 0.061719898 0.71203315 2.6274405 -1.4070672 0.05570936 0.45158207 -0.92522323 -0.65118074 -1.9323864 -0.3506253 -0.22364332
oh -1.833831 -1.005443 -0.4528699 -0.2669219 -1.3844764 -0.21553604 0.96244854 -0.2718277 0.5665817 -0.32592252 -0.087652124 -0.14219573 -1.8860638 -1.0711668 1.8523842 -0.079123504 -0.7237137 -1.3040861 0.64408827 0.62219733 -0.64931375 0.025841184 -0.7236651 -2.4865437
erm 0.61417496 -0.7976272 0.41407877 0.41169792 0.2546713 -0.61008847 0.14012693 0.37586844 -0.7807532 0.34193683 -1.060904 1.4344687 0.03169218 1.0823755 0.23174563 -0.5843584 -1.0107493 -0.26676103 0.30890566 2.0104032 -0.66932195 -0.35447085 -0.40469155 0.667265
x94 -0.39969206 0.61889267 -1.3294528 -0.99750817 1.507895 0.2526657 -1.3773718 -0.5083219 0.84013927 -0.4092133 -0.96928924 0.32662922 0.31135714 0.6877241 -0.69790596 -0.66561353 -0.05056174 0.81764823 -0.07379282 0.991181 0.26731277 0.2494641 0.35654542 -0.008286722
anyway -0.09970019 -0.12480447 -0.9484393 -0.7310423 -0.8132879 1.0870051 0.90213436 1.3474303 -0.68432355 -0.5132356 -0.90787 -0.58722174 1.3248037 1.5073982 1.2448137 -0.31634215 0.031052727 0.44275445 0.8630126 -0.68909746 0.0524025 0.32982868 -0.66736996 0.85402066
foreigners -0.6105763 -1.0144508 0.65745157 0.15117463 0.021780139 -0.6592062 1.4573351 -1.3348713 0.39878556 0.63194495 -0.13183866 -0.8559158 -0.36807296 0.5121041 -0.044671346 0.86099786 0.14399919 -0.24816678 -1.8376628 0.783911 -0.5821613 -0.02823569 0.21104565 1.4417166
sucky -0.4043209 -2.6461337 1.2137169 0.15061381 -0.084461436 0.46191293 -1.1493796 -0.37485614 0.31085724 0.7358891 -0.0657074 -0.40378046 0.893093 0.6632913 -0.63954324 0.09611629 -1.3250444 0.6106711 -0.99825686 -0.6274769 0.5546918 0.54186547 0.3722108 -0.37165153
which -1.4077749 0.5205128 -0.7069585 -0.51564795 -0.12898143 0.2520151 0.07610852 1.1414754 0.5185988 -1.1865648 0.0071788 0.8940449 -0.7872516 -0.9952936 1.5459781 -0.8088872 -0.21600279 -1.0155102 -0.7047202 1.2556864 0.28445044 0.043429073 -0.1521724 -0.5485943
mins -0.46355942 -0.44839168 1.0211043 0.9637939 -2.8065395 1.8025174 1.2405096 0.049543686 -1.2833776 -0.622243 -1.6039275 -1.5189528 -1.2610418 -1.7204657 -1.3951157 0.7150669 -0.7959228 -0.5920288 1.4035157 1.8546922 0.34141544 -0.12944923 -1.1760224 1.0062804
that -2.0804052 0.15379201 1.0648415 0.06758581 1.1070163 0.059968166 -0.7831584 -0.5951634 -0.12708506 -0.2814693 0.04982276 0.34091228 1.3192036 -0.6000335 -0.6248198 0.7374586 0.4149758 0.33369765 0.5031885 -0.7040231 1.3038892 -0.83748627 0.20126504 -1.476613
next -0.4402537 0.4885837 0.23811345 1.2418907 -0.032336812 0.21989273 0.6105818 -1.1066425 0.89427775 -0.8756413 0.23695974 1.1719799 -0.3509695 1.0628847 -1.7924957 -1.1830451 -2.0805638 0.04338243 -0.046273876 2.0105245 0.2524707 0.7621436 0.29327652 -0.71549803
due -2.467936 1.0437891 0.2676201 -0.76736236 -0.5097359 0.038232602 1.1985894 -0.018361896 1.101404 -1.6086067 0.7409503 0.8983866 0.18441124 0.1662514 1.207283 -0.59683293 1.6296349 0.23803668 -1.3375973 0.138073 0.6292047 -0.08091845 -1.8561991 -0.27608195
two 1.1781952 -1.0535419 0.41773087 1.6323401 -0.30842605 -1.7347132 -0.5388439 -0.57839465 0.42051986 -0.63041836 -0.51494354 0.32248592 -1.5302234 0.9186426 0.44957978 3.0244913 -0.42508903 0.9459642 0.104838 -0.06745582 -0.20000534 -0.6123007 0.95319855 1.5639113
couple 0.14115094 -1.0920506 -1.6789222 -0.20334011 0.24679895 -0.12563416 -0.48484698 1.4159117 -0.022790104 0.5698903 0.47566825 -0.54062015 -0.6169771 -1.5077883 -1.0410829 -0.19435194 0.8420025 -1.113713 0.9566323 -0.60256714 -1.6134217 0.24956885 0.29275778 0.5049375
spent -0.89040506 -1.9973831 0.18862152 0.6045832 1.6678678 -1.2870592 0.95771545 1.9344707 -0.09087999 0.17513835 -0.04853706 1.9617058 1.0746012 -0.38997403 -0.32643288 0.9596738 -0.2270124 -0.50677824 -0.43962494 -0.73438346 1.0520636 -0.3029175 -1.4270506 1.5960388
beehoon 0.7466137 0.26930994 -0.18931125 -0.8791049 -0.46962592 1.4494256 0.919364 0.7756436 0.71295017 -0.43626463 1.0653962 -0.7579114 -1.7033894 0.46931252 -0.44373098 -0.52241313 -0.8388416 -0.2684059 -0.6274457 -0.886744 0.19126149 0.06933708 0.21818087 -1.6395308
untidy 0.7236491 0.8493052 -1.3116004 -0.42474142 0.48364565 0.24713546 -0.27429792 0.0087931305 -0.35884094 -0.18522535 0.71681654 0.093981795 -0.12957793 0.20537001 0.95629346 -1.1167066 0.29941854 0.21641792 0.95897967 -0.6335074 -2.165924 1.6178659 -0.30367592 0.5392659
best -1.0114412 -0.3868979 0.25754818 0.8190922 1.0277821 -1.0235023 -0.8230928 0.18013835 0.47992307 -0.79717433 0.54356384 -0.1662046 -1.414789 -0.013898197 -0.51334035 -0.55918896 -1.867887 0.6436151 0.40279922 -0.6489125 -0.341808 -1.2445539 0.9749993 -0.07869326
lot -0.50616765 -0.5134122 0.15426815 2.1473846 -0.6930059 1.4401649 0.92780584 -0.48146805 -1.6056088 -0.81689584 0.1347573 0.8689223 1.1017852 -0.71496797 -0.3168077 1.246182 1.3468866 -1.8736943 0.366974 0.1380371 -0.8906977 0.8614283 0.8923545 0.10454495
scam 0.8228582 0.6638428 0.97098094 -0.21947908 -0.9011843 -0.119393505 0.9468648 -1.6723882 1.0647374 0.027657054 -0.7973674 0.6866007 0.15190817 0.5925932 0.20430928 -0.33606628 -0.8425869 1.1122079 -0.8028962 -1.3639152 0.10551736 -0.41032514 -0.27499798 1.13654
ya 0.65663177 -1.9160347 -0.43409896 0.7629987 -1.5719715 1.3550941 0.4007412 0.19658123 -0.8172777 -0.26173708 -1.9780985 0.62955904 0.120151825 0.13521974 -0.86729616 -0.080984704 -1.3927714 -0.81917495 1.4307066 0.3186356 0.8212647 -1.1958433 -0.05799184 -0.7509643
slack 1.3250902 1.1769308 -0.7798063 0.97894394 -0.9246076 -0.83470196 1.5343759 -0.23526575 -0.13785361 -1.3882598 0.6754158 0.85033447 0.46758986 -0.7824443 -0.2924782 -0.5889288 -0.8639575 0.44862232 0.018621063 -0.9942922 0.17802744 -0.064963154 0.63477737 -0.50188816
into 0.43156365 0.68295 0.24341463 -0.17368874 0.5516016 0.119456634 0.39807704 -0.7623116 2.2732995 0.2828149 -0.42246884 0.4843426 0.5276546 -0.6678601 -0.83917373 1.5231034 0.15596803 0.3442667 0.5461953 0.8261472 -1.3373283 -0.41184628 0.39894456 -0.765341
fruit -1.5277623 0.6939867 0.21335338 0.94573164 0.5750681 -0.31218803 0.8028045 -0.2967587 1.0033207 0.7562731 -0.25633582 0.7075784 -0.4716811 0.015618573 -0.9783814 0.99805176 -0.5140422 2.834899 -0.96634245 0.34512064 1.617199 -1.6392626 -0.9120259 -0.3256605
slow 0.38678324 0.21824525 -1.530068 -0.19960691 0.14325708 -0.5320211 0.27931425 -0.0024557903 -0.3061747 -0.017026057 -0.5517095 1.0216959 -0.21211222 0.11586232 -0.34616467 1.7956688 -0.052066036 0.7677428 -0.7756737 0.89758277 -2.1333418 -0.4283831 -0.07446792 0.5495039
3 1.6635001 0.5468905 -0.10368881 -0.6240258 0.6951107 -0.27913967 1.0499619 -0.10509603 0.48564658 0.30754325 -0.20587108 0.19019087 -0.9936546 -1.3523949 -0.7688253 0.33923233 1.877399 0.1148954 -1.0854075 -0.9127595 0.5525517 1.440626 -0.79943544 0.65089214
boring 0.5991787 -0.7185584 -0.87022895 1.2406175 -0.9598713 -1.4682035 -1.4056225 0.16102415 -1.3460991 0.116181225 0.48085913 -0.54286397 -0.5393763 -1.0978191 -1.8936973 -0.994641 1.3201213 -0.49959052 0.6197987 -0.33437818 0.42972624 0.53067166 0.35531402 -0.19538458
lor -0.2556403 0.46389872 0.42899796 0.7813316 -1.3244752 1.1243724 -0.7294805 -0.3046909 1.2110336 0.42569807 1.3629874 -0.9921301 -1.6830295 -0.4735224 1.0850277 1.7317587 -0.0837552 -0.28998095 -0.45832956 1.3129557 -1.4487005 -0.100128025 0.21702668 -1.2753578
cmi -1.335847 -0.38818803 0.52154076 0.54624724 1.6314292 1.2206573 -0.34168556 -0.25653282 -0.16646084 -0.12860902 1.364222 0.42737955 0.5319162 0.37518016 1.3926435 0.64415634 -1.0333755 -1.3659931 0.45189515 -0.67047036 0.26407522 0.6535778 -1.1815106 0.4203635
still -0.4502337 -0.2130907 -0.98647445 1.4445151 -0.04335374 -0.55108505 0.030490527 0.46053967 0.013917183 -0.4736689 0.62630725 -0.70784533 0.2690424 0.4744178 0.1953986 -0.6850093 0.8315769 0.82200503 -0.4417369 -1.8460126 0.5404398 -0.76679295 1.8510691 -0.07724559
noo 0.9929031 -1.2077816 0.673802 -1.0078638 -1.5090295 0.36785614 -0.17968059 -0.6524124 -0.90535253 -1.3476443 0.099198125 -0.62202513 -0.48343226 1.021017 1.9114473 -0.41159698 0.52176034 1.8559595 1.3050561 0.28545925 -1.4901409 -0.1794536 0.05305866 -1.534211
zzzzzzz -0.51462835 0.5757097 0.36706945 0.1973319 0.75593805 -1.1737137 -1.569758 -0.5677586 0.061936315 0.07406468 -0.37025815 -0.87838054 -0.0069182203 -0.18906242 0.025768856 -0.20395227 0.11640679 -1.8511144 0.5964364 -1.3844129 -1.5414848 0.76243186 -1.0756851 -0.86977524
china -1.2468166 0.24050346 1.6323566 1.0727379 -0.2900228 -1.0091233 -0.061106607 0.6957181 -1.5143758 1.2046056 -0.57375556 -0.29998964 -1.0729135 0.3195282 -0.085155435 1.5415124 -2.0438812 1.113365 1.5288755 -1.5081502 0.6437452 -0.24838035 0.25750488 0.9116981
an -0.7838403 -2.2490153 -1.305542 0.02809955 0.5205335 0.9238614 0.20095965 -1.9476992 -0.26275638 -0.5871546 -0.3011741 -0.69598895 0.27208337 0.22228001 1.3437126 0.96146524 -0.546211 -0.13903342 0.8925155 -1.21342 -0.31760007 1.5000919 0.8176589 0.4498425
stalls 0.41509402 -1.2411281 0.24795291 -0.83564514 -0.4324108 2.6463313 0.12648351 -0.28823233 0.7472033 0.77230185 0.3748821 -0.44607237 -0.19391833 -1.425381 0.0016444218 0.1548451 0.5465026 -0.7132366 0.14183594 -1.817616 2.3946383 0.55604297 -1.5326221 -1.2187487
one 0.49162564 0.6274959 -1.7370731 0.23458114 -0.47416443 1.1008914 0.49855268 1.3210208 0.38038585 1.0742447 0.111950204 -0.5738771 -0.757884 0.6759941 -1.2921602 0.95063514 -0.6228689 -0.3996214 -0.828696 0.5779466 0.34114128 -0.57219607 -0.4179608 0.05869125
or -0.18718353 1.1436036 0.029928766 0.8719947 1.1355305 0.13652776 -0.8863309 2.8846896 0.7536575 -0.76844037 -0.15388 -0.7761952 0.54933405 -1.5543082 -1.3040059 1.5084366 -1.4800808 -0.0822949 -1.6093233 -1.3721912 -0.36437377 0.4036371 1.0531021 -0.26202166
wan -0.9156565 -1.4441657 0.023635061 -0.16246086 -0.7580948 -0.6323191 1.7173214 0.62729496 0.40634322 1.4545996 -0.6082788 -0.49262315 -0.5971019 -0.68917704 -0.41698104 -0.6983241 -0.9283714 -0.38900796 0.4536909 1.788982 -0.7766289 1.0649109 0.9557573 0.09890596
very -0.034604404 -0.37434044 1.2078408 -0.34905848 -0.63131845 0.17790002 -1.3923085 -1.5934367 -0.2737777 -1.0418783 -0.17528762 -1.1664598 -0.6737515 -0.17525226 -0.87620944 -1.940488 -0.6333406 -0.49340144 0.48878893 -0.20619492 0.22805293 -0.86597615 -0.37985677 0.8465558
thick -0.22872241 -0.0023956136 0.078614354 0.5852249 2.0246778 -0.6789554 -0.096674256 0.591224 -1.4096574 1.6927981 0.022693815 0.53587425 0.38889012 -1.3302103 -1.0043988 -0.8402809 1.1454359 -2.2109122 -1.3023003 0.15936695 -0.05293814 0.332607 -0.6569379 -3.0262697
shua 0.6570468 -1.3966521 -0.20970674 0.38324302 -1.248097 -0.87755615 -0.4977912 -0.13141216 1.5124971 -1.7953992 -0.6175531 -0.613877 -0.0061211446 -0.96449137 -0.06808221 -1.1118402 -0.08421305 -0.2840609 0.82124823 -1.4089463 1.3991699 -0.1369647 -0.53077173 1.2934752
chong 0.9263137 0.3657739 -0.7210543 -0.12152598 -0.12972166 0.49409777 0.2872713 0.23016131 0.99527854 -0.99970716 -1.2461191 0.7778812 1.1296482 0.077678055 -0.4509613 -0.8368374 -1.1942421 -1.1424012 0.19341879 0.7798352 1.0052121 1.3936327 -0.003420402 1.0270181
need 1.4968244 -0.6227578 1.8864 1.4955368 2.6109474 0.34091 1.1248329 -0.6815141 0.44656697 -0.2647496 -0.030437581 -1.098991 -1.0725143 0.29046246 0.09981525 0.7113743 0.8172365 -0.9655103 -0.13489327 0.9571439 0.58891356 -0.041529767 0.15195163 -0.48617116
he -0.9266393 -0.57487315 0.21241575 -0.38328987 -0.56155807 -0.84710425 0.11285556 -0.52265054 0.23955329 -1.6809554 -0.69952023 -0.06333135 -1.4317108 1.4646962 0.5765567 -0.003932487 -1.3122783 -0.3300614 -0.21392316 -0.8552997 -0.8663598 -0.18742798 -0.42626053 0.56161666
lectures 1.2159837 -0.70616394 -0.32863802 -0.4162965 1.5223953 1.2493572 -0.9917751 0.9605513 1.5934106 2.780525 0.714971 -0.24983792 0.97559094 -1.3043426 -0.5818749 0.10085418 0.9642493 -0.14469917 -0.3610969 -0.8009121 0.55096954 1.3299072 -0.09732738 -0.685978
comp 0.9362804 -0.6427789 1.0215195 -0.61201936 0.40840662 0.52023965 0.64478916 -1.2034855 1.2644566 -1.0589564 0.7479562 -0.7511816 -0.7752986 1.2574048 -0.70542467 -2.47444 -0.06088522 0.6458146 0.6416322 2.0751338 0.6410769 -1.142788 -1.1167129 0.61525846
boh -1.2172703 1.3797345 -1.1399608 -0.5656676 -0.36702305 0.32383928 0.03651268 0.16459608 -0.12045377 -0.06349549 0.8120381 1.4899375 -0.26627612 -1.1715841 0.3460974 -1.0214972 0.44009253 -0.5108572 -0.25140524 0.10981217 1.4087334 0.18541145 0.96257794 -1.6045945
even -0.26641658 -0.7348344 0.042033296 0.99246496 1.5906223 0.9155999 0.14877068 0.18313073 1.0146173 -0.62881917 -0.26687172 0.93744916 -1.2354151 -1.5587838 -0.57386655 0.8049479 0.14964846 1.5065159 0.79069656 -0.104519956 -0.3513578 -0.050171737 -0.26506934 0.4077668
final -0.3048679 0.87957215 -0.05389701 -0.6177093 1.1864961 -0.5799306 -0.50068516 0.2630369 0.96912974 0.06185136 -0.15560474 1.1226093 -1.4303433 -1.2676382 0.12724511 -1.4681058 -1.9717438 0.7261849 0.3569602 -0.44225106 0.15729931 0.3298815 -1.9328462 -0.90321475
found 0.027129697 1.6970143 -0.379565 0.1356047 -0.12622674 -0.09725265 -0.80535126 1.3393637 0.21546847 0.35682553 0.62984073 0.3654509 1.7465123 -0.35350192 0.017011642 0.27326667 -0.6507903 -0.026322465 0.51249546 0.7050593 0.93472826 0.62437063 0.7953783 0.03223409
isolated 0.49051267 0.3474401 0.053834766 -0.018062564 1.3661114 0.31032303 0.53686965 -0.80327517 0.63366216 -0.17494677 -0.08361117 -0.7462661 -1.7407632 -0.23623914 0.33796388 0.36404037 -0.49293748 0.81706977 -0.36282694 0.54580635 2.2748275 0.19539654 0.0768606 0.25989893
to -0.40487924 0.08860973 -0.38356218 -0.7628224 -0.46768758 -0.018077172 -0.41455492 -0.17967522 -0.24204598 0.45549968 -0.12500443 -0.19437033 0.6691286 0.3649478 -0.3305956 0.10465788 -0.5333542 -0.088389814 1.2295029 -1.4500971 -0.6407202 0.58422595 0.2284893 0.11058078
so 0.56252193 -0.7775445 -0.5272362 -0.074298866 -0.25934786 -0.8633621 -0.5437524 -1.026936 0.1262243 1.4160471 -2.1496236 -1.0080991 -0.12032656 0.94488925 0.13951296 -0.033273965 -1.5727129 -0.53191155 0.37651744 -0.7832338 -0.057692196 -0.49052334 0.85954785 -0.9696766
also 0.35443443 0.38813543 -0.55085474 -0.4448369 -0.11462788 -0.18846866 -0.9532471 -0.834989 0.87268275 0.05167974 -1.6061199 -1.0828252 0.028042218 0.5227069 1.2139931 1.2527403 -0.16786635 0.7723716 0.2994077 0.32801548 1.4464504 -2.0908363 -0.258397 0.52121496
chicken -0.7489519 0.9765607 0.89111865 1.0481555 -0.7584079 -0.24851574 -0.59372777 0.68651354 -0.34531167 -1.5178931 -1.1947242 0.54537827 -0.7372796 0.21809979 1.2219175 0.2996506 -1.2740505 2.1025646 0.55243355 -0.3834343 0.4021426 -1.2260575 -0.026305763 -0.12377273
cast 0.7448304 -0.87675023 0.65492713 0.27676058 0.34089848 0.17455098 -0.6255475 0.6522547 2.0419912 -0.62696415 2.0016139 1.4996674 -1.1514391 0.20212358 -0.54811126 -0.6945309 3.0570433 0.72188365 0.49495128 -0.3340839 0.08106237 0.4942635 0.5473276 -1.1467255
bak 0.35512716 -1.5955184 0.51497114 2.1064246 -0.9958222 -0.80651885 0.061745197 1.8866696 1.1578321 -0.9155292 -0.09318977 1.2021996 -0.47585997 -0.43051982 -1.1577253 0.97872645 -0.8535748 -0.035481777 1.4870723 -1.1411202 1.6416072 0.35611346 -0.52425784 0.001105408
nooooooooooooo -1.680361 -1.0334544 -0.13710484 0.56780815 0.7970872 -0.14231858 1.8168826 -0.836167 -0.20642962 -1.2860909 -0.5329287 0.18496765 -1.5743018 -0.47235507 -1.7573913 -1.3641633 0.5767152 -1.4458307 -1.6674559 -2.563184 0.58251774 2.4379687 -0.4926985 -0.64445823
length 0.5637891 -0.49626696 0.054838456 -0.21879771 -0.9010426 -0.60200214 0.46752962 0.76413745 -0.13302928 0.55153435 -0.5066078 0.09502031 0.60856646 -1.5002553 0.836735 1.167923 -0.43337095 -0.8982339 -1.517817 -0.03746337 0.5797478 -0.14016841 -0.24542066 0.25990543
where 0.0687984 1.4952053 0.7672487 0.19818059 -0.24972382 -0.71663547 -1.3418068 0.26806036 -1.4798424 0.5530544 2.4638808 -0.46871325 1.2334346 -0.13823909 1.1777103 -0.046497513 -2.7412364 -1.1608793 0.61330897 0.22513059 -0.43475172 0.05251339 -1.035165 0.12660897
ard -0.84532446 -0.61817443 0.36169386 0.09604145 0.8391209 0.24738567 -1.076377 0.942914 0.2425018 0.15670228 0.047412965 -0.7828308 -1.2097261 -0.93620455 -0.51591206 -0.26078323 0.31314796 -0.4130144 0.9832461 -1.5149683 -1.8124394 -1.4543765 0.9048493 -1.3347105
u 0.21168543 0.6463885 -0.06026528 0.3927726 -0.46069747 0.14453137 -0.9136595 -1.3224887 -0.41732275 -1.0399308 0.819868 1.0682751 0.9609116 0.4572346 0.40056056 0.48669806 -0.0655237 0.049597725 0.80513775 -0.42454204 0.14106277 0.9788781 -0.45727563 -0.5451887
looking -1.0442796 0.55955106 -1.1335044 -0.37459788 0.1757346 -2.005252 1.8158505 0.055181287 -0.7608244 0.6116851 0.2817724 0.17001717 -1.6039157 -0.3119182 0.7096744 -0.016862124 0.45005554 1.1160824 0.31160367 1.1976964 -1.0802139 -0.32879165 -0.3365531 -0.44909883
roh -0.6538158 1.514797 -0.30780658 -0.73223245 0.27212527 1.0736159 1.1123601 1.0145093 -1.4415213 -0.12243517 1.145017 -0.2507601 -1.6914572 1.5014961 1.5146481 -1.1839651 0.051964924 -0.033926927 1.0239199 1.3755523 0.08430924 -0.34463695 0.76986057 -0.14653824
rite 1.9216985 -0.011900732 -1.2178526 -2.3830724 -0.680308 -1.1656837 0.9676496 0.84108436 -0.95122206 0.36661294 -0.98544484 -1.3412731 0.1436702 -1.0751812 0.3815953 -0.8449116 0.66338366 1.0647306 0.37491003 0.07479948 0.8427046 0.18689467 0.38670748 0.08490467
estate -1.969541 0.7200866 0.7641111 0.3733345 1.0835329 -0.73024386 -0.5053785 -1.634989 0.72337306 -1.7197406 3.1829925 1.4668016 -0.08998657 -0.2732597 -0.27206308 1.3063102 -0.8026894 0.64184433 -1.1955675 -0.009762253 -0.79434794 -0.23056148 1.5751774 -0.2950317
sci -0.47914088 0.29175234 0.7941875 0.19949858 0.65718764 0.32300103 0.7170719 0.2505963 0.68052614 -1.127563 0.2829521 1.4475223 -0.10311671 -0.19873527 -0.2972613 -1.0965042 -0.11570548 -0.4782944 0.27335593 0.55151325 1.2230895 -0.38451228 -1.2962065 0.6191169
medicine -0.15880783 0.59675735 0.40819615 0.03627788 -0.49404544 -0.88971245 -0.22628693 0.18617901 0.35241312 0.8195892 0.8532454 1.1006773 0.45588392 0.8776567 -0.67247844 -0.5401097 -0.08130751 -0.6167678 -0.06289334 1.0648745 0.2999846 0.79023093 -1.6497647 -0.66155165
every 0.92570144 0.6484535 -0.3080794 0.41654846 -1.2654166 0.1738117 1.5219253 0.80115986 -0.27736104 -0.30905175 -0.5270084 -0.8820249 1.3771585 0.092572816 -0.39929253 -1.4103099 0.02695643 -1.8460879 0.08073378 -1.3338623 -0.66792834 -0.16939253 1.1240401 -0.5411282
must 1.1426684 -1.4141569 0.027748615 0.16053246 -0.14882798 -0.025502754 0.99471885 0.89231455 -0.8015275 -1.8822167 -0.011721184 -0.08678071 -1.1394866 1.0320013 -1.4401418 -0.8415144 -0.78485805 0.057809424 -0.314803 -1.7226949 -0.16394188 -0.40490177 -0.22192249 0.2783416
love -0.19549003 -0.30949727 1.5639678 -0.65942305 -0.254396 0.40728435 -0.38506836 -1.134813 1.3627285 -1.1374761 0.26848587 -0.5392418 0.5398223 -0.6638855 1.6939865 -0.8191921 -1.03681 0.4815317 0.36143368 0.34349713 1.1306844 0.9338088 0.1685278 0.9003711
uh 0.71851164 0.8992894 0.3918346 -0.7790263 0.8926934 0.7492082 0.13105631 -0.4163957 0.48198676 0.9955654 -0.64993364 -1.2094945 -2.3607028 -0.42651507 0.46240547 0.23421046 2.4590333 1.2757287 0.30206594 -0.21358214 0.469431 0.1399335 0.157333 -1.0680759
makes -2.0807753 -0.88180274 1.1650163 2.723419 -0.71380997 -0.24766898 0.2859276 1.3205931 -0.92068523 0.31696463 -1.336401 -1.3195927 -1.5082948 0.4321417 1.3815112 -1.049097 -1.4574608 0.66493356 0.2481808 1.1844167 -0.028493233 0.055679172 0.081184454 0.071614586
stall -0.031287257 -0.092013806 -0.35093582 -0.7775701 -0.265576 -0.6789957 -0.48568144 -0.160184 0.4819238 0.31645414 0.19597441 0.91984934 0.49809024 2.0789998 0.7652669 0.9670848 0.7111362 0.2828711 0.6354879 0.27856347 -0.1971309 0.98583615 0.36352903 -0.6024702
rest -0.19451848 -0.33558562 -1.0010246 1.2373089 1.457253 -0.65976125 -0.6554864 1.0115902 -0.41290903 -1.0246888 -0.571745 0.6887934 0.97995526 -3.1296518 -1.7840701 0.38285226 -0.46740383 -0.82161546 -1.434804 0.57975084 1.6857051 0.32331985 1.3492836 1.2877868
method 0.65249205 -0.8380815 -0.13522193 -0.7535304 0.5337649 1.364028 0.120020434 0.26966023 1.3352664 0.44828582 -0.047602043 -0.3565642 -0.88230443 -0.31776986 2.1799057 -1.0592948 0.952302 -0.27979732 -1.2595086 -0.76991737 0.4450834 1.547602 1.336909 -0.17635061
mug -0.683732 -1.0491555 0.3384841 -0.26432967 -0.079889156 -1.0233289 1.0770475 0.27253607 -0.6568623 -0.1933583 -0.75024897 0.11468848 -0.75368655 -0.5352413 -1.1566108 2.1824853 1.2766845 -0.34995276 1.6920825 -1.2326932 0.63631797 1.3697029 -0.88149375 0.84929657
stuff -0.15744373 -1.6770927 -1.303933 0.5130919 -1.766218 -0.9629481 -0.8853314 -0.224152 -1.6705173 -0.74440557 -0.008163909 0.56583303 -0.22804561 -0.5729789 -0.026735632 -0.98165506 0.4364648 0.694038 0.5437364 -0.30541405 -0.8001122 1.1760207 -0.7437735 -0.3397952
themw -0.7943506 0.7745601 -0.48885605 -0.044377673 -0.07861205 0.742472 0.64974993 1.4775726 -1.3724545 -1.2823243 -1.5402452 0.19676122 0.6256333 -0.9351853 0.14549771 -0.94613963 0.04275296 1.1411535 0.37375578 0.8289151 0.5603539 1.3160746 -2.4662817 -0.045603156
cos -0.50685406 0.4874664 0.46629038 -0.96346384 1.1451412 0.6344374 0.68016595 -1.1253949 -2.083498 0.2497409 1.2273502 1.496617 0.10806645 -1.3710253 0.24363944 2.2129118 -0.9574632 -1.3004671 0.30404872 -0.5180262 0.62002134 0.26671103 0.7712078 1.345911
rice 0.035224907 0.17765757 -0.94808346 -0.8893281 0.18293886 -0.10412268 0.37361372 0.75259924 -0.6652273 1.5233967 1.3255862 -1.9658047 -1.0923362 0.32110524 1.3318602 0.9003224 0.5185881 0.12026945 0.7862615 -0.25013676 -0.9644682 -0.11990275 0.10794592 0.35147414
pang 0.14362678 -2.1082377 0.27405903 -0.5081219 -1.3370868 0.13649824 0.63860947 0.52460575 -0.23877329 -0.6359185 0.45016283 -0.4867334 -0.2682223 -0.04620671 -0.7572948 1.2360816 1.4775481 0.3526454 -0.4628342 -0.6358338 0.75956964 -1.1727087 -0.6306083 -0.63329744
notice -0.48287535 -0.8475986 -0.5272731 1.1482117 1.6624293 0.37984985 -0.43581697 -0.6102301 -0.23151258 0.36643276 0.07863269 0.8620034 -0.00997773 -0.7882142 -0.80129653 -0.4017754 0.76447666 -1.0164047 -1.1867931 -0.76696986 -0.80627996 0.63098824 1.413386 -0.49046612
edit 1.3290815 0.43049037 0.18094103 0.25672475 1.8950922 0.32265228 -0.5658104 0.53866744 0.777514 0.8567848 -0.9196857 -0.2312658 -0.32668334 1.1627809 -0.7078276 -0.31547025 0.86688673 0.22545151 1.529851 -0.38478944 0.57495767 1.6121991 -1.1885313 -0.26927608
tan -0.43450296 1.433062 0.5469162 0.065610066 0.6211374 1.1397495 -1.0309309 -0.3788724 -0.049634445 0.458652 1.6266346 0.57188296 1.0326467 -1.243285 0.5298173 -0.75340754 -0.035295077 0.7095368 -0.30366507 0.6515132 -0.31851515 0.56783605 -1.1733174 0.5469847
study 0.29597133 -0.15588403 -1.6547338 0.76414585 0.08779543 1.1889929 0.052594088 -0.029685307 0.6230202 1.1154234 0.3219713 -2.1547682 -0.8577859 0.06507178 -0.4339476 -0.2501297 -0.017707294 -0.8914021 -0.56064624 -0.48654038 -0.11777977 0.27295625 0.09973379 -2.3494983
such 1.6400126 -0.5951291 -1.4402499 -1.1014704 -0.8720637 -0.3837984 -1.3702701 -0.7096806 0.17968439 -0.14532472 0.79857564 1.6555394 -1.4672318 -1.1856887 1.1214406 -0.10685268 -0.5164892 1.8955693 0.80136037 2.3312185 0.31269765 -2.0008929 0.7618708 -0.6219538
know -0.7192776 -1.2963059 -0.072998226 0.84463865 -0.76061517 0.92193246 0.31409913 -0.666109 1.9993637 -0.5076272 1.5303565 1.4467854 0.26319647 0.0019465403 1.2671773 -1.5017629 1.023648 -0.06687225 1.7313081 -0.45407516 0.6137613 0.22044253 0.62504685 0.0055897203
everywhere -0.2381421 -0.025636567 -0.17141189 -0.9462716 0.60189354 0.659223 -1.4633759 1.2009015 0.4989188 -1.3198752 1.4707888 -1.5507358 -1.186173 0.95663047 -1.5171347 1.0403347 -0.30802777 -0.92565507 0.3027169 0.7499129 -0.14481916 0.8675722 -1.4736363 0.9449362
2 -1.1908333 -0.16429445 0.29831833 -0.15500592 -0.075612195 -0.14805527 -1.4384736 0.2816858 0.35412723 1.6212548 0.49944767 -1.6861923 -0.2910568 -1.3957392 0.5616061 -0.25399533 -0.30203173 -0.012799144 0.2575075 -0.5233369 0.25251943 -0.6371825 -0.36033255 0.19923252
how 0.10281418 -0.24899125 -0.533636 0.051282436 -0.49646702 -0.24136999 -0.666995 1.0930558 -1.3609954 -1.0007801 -2.5407727 1.037597 0.49167454 -0.09116608 -0.5061731 -0.36040467 -1.600935 2.3260016 -0.5135463 -0.6353 -1.1750653 0.42815164 -1.1632055 -0.36439154
nasi -1.9766301 -1.0857221 0.26021704 1.1617787 -0.6278941 -1.1946065 0.07562673 -1.1327363 -1.0209534 -0.22213158 0.5042696 0.37738594 -0.23654783 0.3611907 0.9952943 -0.36253786 -0.84928983 -0.9259426 0.55847806 0.98188 0.89888906 -0.52335995 0.79321533 0.31496447
til -0.94502205 -1.7234269 -2.415297 -0.12540618 -1.5369173 -1.9866503 1.0935096 -0.5518777 0.31341547 0.7100465 1.3683261 -0.49922618 -0.21958883 -2.3496537 0.5397758 -0.19648977 -1.6527262 1.0789287 -0.059204753 0.44439772 0.34550947 0.2553785 -0.07918079 -0.41144854
aunties -0.836984 0.037733816 -0.8958162 0.22178498 1.2120831 0.19102687 0.38814732 -0.8405732 0.37107158 -0.81643337 0.15863743 0.023096563 -0.37268162 1.2429849 1.6459963 0.8021259 0.12379883 -1.7020898 1.4329805 2.0574503 -1.1715038 -1.1202301 -0.1871501 -0.27155662
baggy 0.48066643 -1.9110739 -0.0019114348 0.33229464 0.13027425 -0.6636403 1.5621738 1.1325482 1.1921659 -0.8030943 1.6132333 1.0597699 0.85579866 -2.1271918 -0.6012807 -1.6040055 -2.4944975 0.15194787 0.22581886 0.59997654 -0.63998884 -1.7281699 0.38772404 -0.79570997
those 0.8970699 1.2616777 0.3532853 0.107491285 -0.7362877 0.95902437 -1.2245044 -2.0858326 0.2678508 -0.551003 -0.3317928 1.2511438 1.0613781 0.23327303 -0.7933404 0.56615734 1.108568 0.59763706 -1.0245804 1.0117533 -1.2798268 0.15738025 0.43320054 -1.7574255
breadth 1.9394841 0.24342495 1.080405 0.06287129 0.9284142 -0.74280334 -0.44327798 -0.7071508 0.6360345 1.1485903 -1.6016468 0.054916356 -0.13000493 -0.1677715 0.30981186 -0.21710002 -0.30119777 -0.5913558 0.3687009 1.1688519 -0.40884557 -1.0814925 0.6208147 -0.72809875
was -1.1665696 -0.7186713 -0.06761274 -0.8320394 1.3029406 0.08209276 -0.9843859 -0.96076053 0.054032914 -0.4097699 -0.24708533 1.2101014 -1.3772213 -0.45059648 1.3006175 0.7237611 1.5390637 -0.2427125 -0.5244333 -1.6522609 -0.29715562 0.5080689 -0.07226547 0.6799351
frenz 0.48608005 0.6466091 0.27700573 -0.81836313 -0.26648244 -0.42933404 -0.6985714 1.5474799 -0.8829602 1.6292893 1.7195344 0.27202782 -1.0281705 0.9522046 -0.644569 0.54632616 1.0913861 1.3016533 -0.6804394 0.16493075 0.8334964 -0.045656465 1.7673669 0.14825492
easy 2.2692432 -0.73805666 -0.765122 0.9501914 -0.98590285 -0.4704339 -0.14976825 0.36193252 1.0693938 0.19184086 0.059756372 -0.598132 -0.1412705 -1.7117219 -0.54378146 1.1776248 0.9160236 0.90321845 -0.5931088 0.972119 1.4625064 0.07954546 0.33424187 -1.2166758
food 0.22627759 -0.0041542063 -0.03368617 -0.6042729 -0.030601146 0.31499112 -0.04544938 -1.1910632 0.25791496 -0.35895652 -0.20852761 -0.21139355 -1.4153836 -0.5683148 -0.07726327 0.8763187 -0.48749226 1.0501523 -0.18853547 0.5575388 0.91983694 -0.16474277 -0.785033 -0.20385756
who 0.15241194 0.65787584 -0.15202129 -0.7940485 0.5026341 -1.064451 -0.31912255 0.91632384 0.6819741 -0.809814 -0.65219146 0.3651543 -0.27451664 -0.2927836 0.8406016 -2.2972379 -0.50099945 1.4922048 -0.26827583 0.42443547 0.98388225 -1.351451 -1.0777698 1.579797
pasta -1.3266134 0.32056096 1.1803552 -0.5519321 -0.36924443 0.40777853 0.59296435 -2.2519584 -0.6795335 0.9043758 0.10583187 -1.3099031 1.0046636 1.8785473 1.585995 0.05306995 -0.63919157 -0.41672933 0.2943745 0.70036775 0.1983602 -1.3273445 0.04127067 0.35520673
gotch -1.2742376 1.382078 0.42591223 -0.66093534 -0.94783187 -0.53009725 0.9337886 0.22650854 0.093226306 -0.17578703 -0.47399715 0.8964822 0.0240536 -0.05412174 1.4248403 -1.4597651 -1.2368987 0.22817352 0.2365068 -1.237656 -1.3895999 -1.0011132 0.28473574 -0.19012769
dam -1.3420131 0.81104743 -0.04794 1.251169 0.027611447 -1.1997186 1.709446 0.42278615 0.55478746 0.26177582 0.83458376 -0.7261822 -0.9183588 -2.0080166 -0.23787497 -0.45688555 0.9578097 -0.84884006 0.16606086 -0.11144098 -0.24435204 -0.45356476 -0.90037113 0.10284722
noodles 0.5280163 -0.024643961 1.2520248 0.6943352 1.0948296 -0.38498458 -0.5246347 -0.24520792 0.528207 -1.1503874 -0.46780545 -0.76339173 0.76045144 0.8536463 0.44165772 0.47301677 -1.7209841 -0.9765207 0.46450984 -0.13553059 0.3541527 0.11873066 0.03178488 1.0085319
4 0.90535694 -0.8862586 0.6420221 -0.34780982 1.6173788 0.20879535 -0.9012453 -1.5364211 1.2378688 0.31995642 -0.35221404 0.35624892 1.4717543 0.3686321 -0.78796995 -0.39650735 -0.740194 0.18043716 -1.7520827 1.2220162 0.34129053 -0.9854671 -1.6067451 -1.2267808
their 0.7697505 -0.22471923 -0.91712034 -0.22973093 -0.2082798 0.45705372 0.16872506 1.0746342 2.34738 -0.037232433 -0.6026688 -1.5935915 -0.9989889 0.24058853 -0.9436337 -0.23840183 -0.7068322 -0.09092429 0.0648068 1.0345048 0.5914303 -0.31351462 -1.1370497 -0.25055692
by 2.7221901 0.41343984 0.850223 -0.37153375 0.7049876 -0.84932864 0.39771298 -0.058590006 -1.2516629 -1.2247733 -1.4130547 -1.4894041 0.23695382 -0.70864815 0.24100032 0.40786856 -2.3185234 -0.9256554 0.1972339 -3.1076849 0.8218796 0.31441477 -1.0892216 -0.04496416
improved 1.178375 -1.339373 -1.3483458 0.24922028 -1.2718496 0.29474276 0.39425796 -0.69569236 -1.102271 0.36563793 2.608944 0.03848688 -1.4493477 0.22230732 1.261701 1.535964 1.7221862 1.275571 -0.36665708 -0.42481312 0.04410265 0.5702271 -0.36484715 0.47192612
comments -0.45209727 0.30117002 -1.4295317 -0.47820967 0.39111343 -0.31790867 -0.28525314 -0.067529455 -0.75741005 -0.071700335 -0.5267233 0.3990275 -0.22843844 0.7299785 -0.15512197 1.8901193 0.19102766 -0.39544472 -1.1280514 -2.524475 0.13194211 -0.7585176 1.726493 -0.5701215
go -0.21173038 -1.0943466 0.5439218 -0.87562054 -0.20384082 -0.94926506 0.015880113 -0.61121875 0.32225397 1.4578229 0.37392387 2.133849 -1.1086797 0.4475992 -1.2067455 -0.6569772 0.16167346 0.9204281 0.06253836 0.5637822 0.6868872 0.6593741 -0.21273576 1.8210137
whole 1.8176295 -0.56408274 1.3646216 1.264904 0.11155039 0.45521587 2.4772704 0.560234 0.12968026 -0.17610711 0.30453852 -0.5664192 0.59362304 -0.049593072 -1.1356242 1.2224017 -0.09321913 0.4912324 -0.89345765 -0.066057526 -1.207224 1.1031201 -0.5284934 -1.4599952
service 0.6643459 -0.21276383 0.39741218 -0.8758391 -0.9135641 0.5793074 1.2750425 0.8210807 -1.9256403 0.73605335 -0.11612898 -0.46108618 1.535355 -0.22976053 0.43183082 1.264084 0.667497 1.7161231 0.19994147 -0.8186917 -1.2213982 0.44628784 0.14768803 -1.2201331
shes -0.50376534 -0.5564669 1.8279173 -1.7516991 1.671589 -0.5749591 0.13017662 -0.27601168 0.53220403 -0.15400137 -0.6659878 0.940429 0.35930824 -0.3726208 -1.8462532 -0.30135036 0.097250104 -0.25203884 -0.3446031 1.4404826 1.122307 -0.4928209 -0.24622926 -0.77110946
owners 0.85077804 -0.9520129 0.30471894 -0.45754734 0.1727236 1.7631644 -1.1816858 -0.31780055 0.67433053 0.67057395 0.39163917 -1.6155479 0.63273233 0.87064683 0.50548023 -0.013748265 -0.9939356 -0.58697015 -0.16680299 -0.2412297 -1.4212043 -0.99302804 -2.3342867 0.7817288
although 0.46656913 -1.2645719 0.004341112 1.2877812 -0.16409376 0.75648874 -0.4252813 -2.076829 -0.41599527 -0.97413313 -0.18506229 0.5326348 -1.3488269 0.05272686 1.4318205 -1.5447819 -0.41899264 -2.18468 0.18817982 1.1078026 2.2714114 1.5761577 0.38462034 0.1711311
peak 2.9058585 -0.5708557 1.1617808 0.5543477 -0.51312876 -0.6373244 -0.6574889 1.1131794 0.014058395 -0.23951733 -0.25279927 0.67662543 1.4090136 0.61193717 -1.1358383 -1.1004206 -0.12927125 -1.5424407 0.19114834 -0.022662148 0.12499487 -0.9248328 0.49501982 -0.8747842
outside 0.5483339 0.78291744 0.07370753 -1.7561417 -0.41562048 -0.36337802 -0.72574514 0.96828145 -1.2330983 0.75409025 -0.9283579 2.3005812 -0.1262582 -0.49407157 0.34316057 0.29603946 0.8149893 0.85719556 -0.24960263 -0.6280978 -0.723062 -0.7009942 -1.0393591 0.80110884
pure -0.06387216 0.83648366 1.5597185 -2.8188972 0.21321777 0.8612454 0.47363183 0.022949643 -1.7647752 -1.3037027 -0.58409274 1.2621279 0.035434835 0.36566463 0.13689017 -1.3533067 2.6359143 0.29703104 0.02011725 0.2758918 0.922722 -2.1232347 -0.7821019 -1.515368
dunno -0.72519714 -1.1929147 0.9701026 1.9135143 1.2853487 1.2132051 -0.043367475 1.3947772 -0.9610992 -0.019528797 1.121909 0.5289834 -0.0044220914 -0.2583878 0.030155612 -0.439063 0.82813764 0.90189487 0.5652954 -0.6863483 0.51544654 -0.3653441 1.4262214 0.22634797
but -1.2534025 0.5687493 -0.7149712 -0.74681985 1.8512361 0.077294 0.7339156 -1.3630342 0.6085032 -0.2868056 -0.40657085 2.2910964 1.196015 -0.2611633 0.42378816 1.1038991 -0.24368048 -0.68436074 -0.6398149 -0.67136127 -0.08052874 -0.26194313 1.1907793 -0.30102298
least 0.7974544 -0.18988992 -0.23352593 -0.714555 -0.72918516 -0.5974106 -0.57905906 2.180463 -1.8548173 1.2461691 0.03033476 0.43476862 -0.9613594 -0.45103455 -0.73105174 0.20071262 0.7392101 -0.56521714 0.9286387 -0.4069929 0.556356 -0.71016264 -1.6761669 -0.37960926
alot 0.6197195 1.6767163 -1.7254313 1.3513174 1.1177151 0.417734 0.71749973 0.92812777 0.58375174 1.3567302 -0.59360236 0.66647476 -0.08142931 1.5536286 0.47759387 0.6713489 -0.06502575 -0.5313427 0.43360507 1.1142619 -0.4943024 -1.1079863 -0.49139658 -0.8383408
lah 0.6200372 0.639588 1.3733152 0.25722924 -0.32984424 -0.93654966 -0.019288855 -0.41792098 -1.2207282 -1.7945827 -0.6088485 -0.9588959 -1.1792593 0.019562291 0.079357475 0.10484481 0.06625139 -1.4454471 0.019423977 1.5360662 0.8456264 0.8137375 -0.065610826 -1.2975713
theres -0.40892535 -0.5638509 1.6929016 -1.9564359 0.67355305 0.42618468 -1.1559913 0.16938584 0.24281657 -0.22676276 0.8833117 1.1424298 -0.1890033 1.2398139 1.1714866 -0.50911754 -0.84147936 0.31907317 -0.18478957 0.4176045 -1.995059 -1.7662314 -0.7939211 -1.684907
tau 1.1671214 -2.2200673 1.0603899 -0.86625105 -0.2691639 0.853695 -0.40553027 0.41106278 -0.19216092 -0.8011832 0.7562206 0.9122788 0.043749005 0.415511 1.7240444 -0.14095366 0.7219917 -1.2055142 0.87497425 -0.44713172 0.6926154 0.25694767 0.6428121 1.4089568
general 0.22300467 -0.8604464 1.4461445 -0.3985235 -0.05552871 0.06919246 1.2159086 0.2093423 -0.5353457 -0.6976856 -1.4675906 -0.5765048 0.5546678 -0.8156364 1.1324912 -0.50952053 -0.40266097 1.1781231 -0.5198981 1.0659544 -1.6531342 0.21822658 0.4907942 0.8302523
far 0.5427398 -1.1928036 -0.2909363 -0.6118175 0.120420046 0.68779576 -0.43060133 0.3870557 -1.1345564 0.58958846 0.67329407 0.9431644 -1.9449242 -0.5431985 -0.7736954 -1.2262923 0.23325764 1.1585858 -0.33343634 0.4057271 -0.67653275 0.5281954 -1.1575211 -0.6963623
shacked 0.4163993 -1.4681374 2.024292 -1.276169 0.68721783 2.7048552 0.5287016 -0.51637614 0.13250147 0.26890925 -0.29193252 -0.47309414 0.17278832 2.3323903 -0.7672751 0.52830106 -1.0373358 0.22532223 0.16463555 0.32937562 -0.78048605 -0.19989967 -0.11747704 -0.9919859
yeah 0.20509592 1.6000644 0.1776834 -0.23260993 -1.0673909 0.69986975 1.512234 0.13098164 -0.07805033 -0.6940683 -0.8268312 1.1172662 0.8570158 2.5068843 0.19347979 1.0869883 -1.6414983 -0.5930464 -1.540256 -0.08832316 -1.0850141 -0.26390904 -0.8355319 -0.6181788
1 -0.39107516 -1.924774 2.2570324 0.28571618 -0.1502048 -1.3695331 -0.7106179 0.12555683 -1.3800651 -1.1754851 -0.87829465 -1.2394073 2.7278774 1.1555904 0.7190426 -2.1664562 0.6080218 -0.6428213 0.14165379 -0.23332673 2.8244054 1.2534102 -0.56020117 -0.4171774
combi 0.8188626 -1.5696572 0.43339223 -1.1573249 0.3593885 -0.4466839 0.6268676 -1.5165949 0.5308925 0.051171303 -0.8238551 -0.96621954 0.09957355 -0.43056417 -1.2806115 0.009582358 -1.2997713 0.3381008 1.6834452 -1.6291317 0.7785743 -0.4475106 1.4652408 -1.1326568
milkshake 0.39136776 -0.08275114 0.954753 -1.294388 -1.226037 -0.36281875 1.5600609 -0.5105369 -0.40090275 -0.5859781 -0.18939508 0.34774348 0.79909796 -0.261113 1.5732492 -0.92880386 0.94560367 0.33123213 -0.7754072 -0.8520213 0.40570277 -0.721566 -1.3530182 1.0565428
quality 1.1432903 -0.31133986 -0.3662556 0.7333328 -0.035607338 -2.3072813 1.2000897 1.6087985 0.50403047 -1.1841669 1.7950933 -0.729141 0.38836944 1.1160622 -1.9151226 1.2158332 -0.5169925 0.21547529 -0.50221586 -0.6149711 0.9166309 0.92901033 -0.5602062 0.26476085
guy 0.6891924 -0.14708583 -2.181023 -0.23311508 0.07466229 -0.35287443 -0.89977336 0.05005748 1.3492899 -0.64899427 0.56369925 -0.08520608 -0.610578 -1.2254298 -0.56111133 -0.32074603 -0.6239387 1.6615179 0.93195885 0.2903106 -0.07783794 -0.18863252 -0.029593356 0.15506816
elsewhere 1.5380273 0.30911663 1.0029129 -0.16311868 0.4606003 0.64362144 -0.32602468 1.1341997 0.5375113 1.1886594 1.0507193 0.106848285 -0.67408276 1.0741421 0.021810623 0.09343137 -0.8117363 1.2361113 -0.6225041 -0.53082705 0.07402908 -0.61947554 0.06260874 -0.9844347
ends 0.4633659 0.85041714 1.7807183 3.165627 1.6016576 0.097454906 -1.2849692 1.4477041 -0.48225647 1.0082136 -0.26877856 0.24604848 -0.5535724 2.1769934 0.38531578 0.8719154 0.4334011 -1.3560015 -0.94510865 0.9596343 0.014731531 -0.57839304 -0.6979047 0.1656312
ordering -1.0510479 -1.644603 -0.5437077 -0.61487937 0.6750519 -0.06918458 -0.2127926 -0.30981556 0.73892695 -0.33065468 -0.004295715 -0.80370194 -0.3606106 -0.3142193 0.42565587 0.78316075 -0.25443718 0.5266648 -0.95557153 -1.0198524 0.57983637 0.99490666 -0.97689766 0.63184243
most -1.0862824 1.4951402 -0.20836365 0.61746085 0.28179696 -1.0091385 -0.1584301 1.000892 0.11957504 -1.7194018 0.5411013 0.4197686 -0.23375887 -0.12428748 1.3478031 -0.05933154 1.3854126 0.4650601 -0.2268813 -1.0278809 -0.104697 -0.45821872 -0.39820108 0.026242767
hair -0.39018166 -1.1419324 -1.6034839 1.0224605 -0.84800506 1.0164104 -0.90531904 -0.07511869 -1.4816225 1.0047594 -2.6679163 1.6058201 0.91059583 -0.42842132 1.1420714 -2.0947511 0.3001638 1.2976719 1.3609731 -0.6713125 -0.71105 -0.49013186 -0.27034077 -0.80179244
argh 0.99176025 -0.35270476 0.5034032 -1.5511372 -0.9595605 1.292304 -0.8309948 -1.0691364 -0.35822046 -0.9471494 -0.9240242 -0.049902644 1.9301249 0.7484801 -1.1082366 0.740971 0.6845433 1.2756478 0.029313607 -0.31866577 -1.2730416 1.6117103 -0.44967145 -1.0755595
snaps -0.24876474 0.36753854 1.5013846 0.700095 -1.3276576 1.2799083 -1.0053267 1.2331105 0.04221872 -1.2400959 -0.8938993 -0.10492433 -0.80879974 -0.59636784 -0.33229628 -0.41057414 0.8444488 0.8753816 -1.1083467 1.4369792 0.85572946 0.17192654 -1.3024014 2.0385542
as 0.7580444 1.7553726 -0.4810256 2.2834 1.7133821 0.28191778 -0.31081572 0.5637271 -1.1704825 0.32950714 -0.27628052 1.0230457 -0.46286476 0.48920885 -0.39477736 -0.18651481 -0.12890235 -0.8981316 0.2121906 -0.5848599 -0.4077696 1.0723819 0.7618089 -0.47510096
uncle 0.7413793 0.662561 1.9205991 0.32052818 -0.63279796 0.78037477 -0.23967859 -1.2065494 1.5083863 0.30524886 -0.47452322 -0.36800233 -0.07137788 0.7558782 -0.6784502 -0.89825654 0.27125388 0.34927535 0.8804237 -0.47583595 1.127048 0.39271152 -0.36611733 -0.2644195
went 1.3090978 -0.83588284 1.6756802 0.30625486 -0.6024805 -1.2935731 0.23077515 0.7924162 1.065455 0.021375138 1.368609 -0.22354183 -0.96520144 -0.92747515 0.1649385 0.37579745 1.4967306 0.784428 0.6678085 -0.20970158 0.23799387 -0.72107124 1.8586681 -0.32298934
die 1.4981987 -3.1804361 -0.47835058 -1.2238114 -0.83309764 0.9121582 -0.1149456 -0.45796415 0.77116966 -0.5693347 -1.4167072 0.0891667 -0.1256512 -0.63723063 2.0440507 0.64716846 -0.8347019 1.7554755 0.5825296 0.21023066 0.956765 1.5540093 -0.30633846 0.040181402
pohtato -0.7935997 -1.1713252 -0.43308902 1.4569519 -0.91178125 0.5316995 1.0148674 -0.5422626 1.4535868 -0.8587393 1.4231693 1.9251138 0.78975743 -0.6480822 -0.91826344 0.03921593 0.9405042 0.112357765 -0.42458177 -0.049198426 -0.9417165 -0.18540438 0.5590457 1.5230674
talents 0.82718927 1.2048506 -0.79995656 -0.7140419 -0.24326923 0.49215075 0.41088593 -0.5416669 0.6166091 -0.39783433 -0.22655162 0.7089477 -0.8304246 -0.5225006 1.9435891 -0.4890772 -1.0521945 1.4754591 1.2681144 -0.5947825 0.89080226 -1.7183956 -1.4823097 0.06941452
havent -1.48773 1.3467025 -1.2565032 1.2443022 -0.73527575 0.71746695 -0.012543732 1.5702595 0.45838746 0.38917494 -0.28888965 1.0478067 0.3678369 -0.028702496 0.8443412 -1.5858197 -1.1353925 -0.6409774 -0.5839505 -2.0691063 -0.261517 1.1627867 0.33247307 0.22031012
reason 0.16048673 -0.28903434 -1.1618872 -0.81194675 -0.22290355 -1.101881 0.7144188 0.9013613 -0.21595702 0.39662817 -0.10285243 1.3310299 1.5207531 0.47364944 -1.3420353 0.7064453 0.6687096 -0.5903769 -0.97682494 0.05447026 0.41367313 0.042397708 -0.33723456 -0.93673986
recommend 1.2134 -1.2440909 -0.347887 -0.6000753 -1.7504718 1.6738734 0.8410616 -0.26458558 -2.34419 0.30136943 -0.3180719 -2.2149513 0.0006512394 -0.4970126 1.4555563 1.0901103 1.350293 0.52632976 0.4026561 0.94625735 0.28617233 0.3795442 -0.48038113 -0.01757865
you -0.60025716 0.29253328 0.9607876 1.6481578 0.16179931 1.3493385 -0.14389683 -0.9434044 0.12606412 0.038957603 0.19164227 -0.38054052 1.0345258 0.49766624 1.056847 1.2628675 1.9988673 1.2201332 -0.023672443 1.7284448 -0.66001487 -0.85823727 0.8001677 0.32591504
engin -1.34301 1.3171173 0.3026127 1.4601177 -0.060301512 0.4731722 -0.43444365 0.585724 -0.7085364 -1.1722425 -2.282638 -0.36165288 -1.3536761 1.0077398 -0.5472833 0.7057779 -0.16254376 1.1841768 0.07926295 -0.42281535 -1.4619126 0.065102905 -1.094691 -2.2864852
mc -0.11696536 0.6976157 -1.1788899 -6.7465866e-05 -0.6492556 1.1523666 0.5342401 0.98450756 -0.11589668 1.0291303 0.39488202 -0.60456663 0.4589025 0.5927442 -1.1429474 -1.0190232 -0.38212892 -1.428044 2.2879372 -0.15579431 0.51207715 0.122151256 -0.120565064 0.58839244
word -0.61258936 -0.38057852 -1.0447941 -0.47460777 0.13498572 0.15547521 -1.5309104 -2.2329445 0.25323007 -1.8917576 -0.37215504 0.9762114 1.7601138 0.38386807 -0.46085325 0.9794651 0.768057 -1.5835077 0.12169394 0.09556059 0.049738698 0.034599226 -1.792136 0.046033915
meh -0.44588834 -1.1850022 -1.7839202 -0.11723653 -0.56116223 0.05252586 -0.9475329 -0.7831106 1.2696415 2.110787 -2.3499954 1.1729192 0.71643037 -0.27321163 -0.17843176 1.6956013 0.71883297 1.0278319 -1.157167 -0.4895684 -0.43819222 0.2916073 -2.040345 1.0548826
module -0.056451675 -0.20023341 -0.40474433 0.7497896 -1.3092414 2.3788528 0.17855707 0.33646572 1.0801573 1.3537483 0.056809485 2.5876245 0.05139422 0.36262354 -0.6673412 1.0413924 -1.0080727 -0.8831914 0.38774768 -0.30673242 -1.5939213 0.8975206 0.3246522 -0.20123462
studying 0.658769 0.5918129 0.65303814 -0.6614376 3.9642186 -0.47319221 -0.21543303 0.6836448 -0.12123942 0.10403716 0.13075617 0.37611094 -0.6794792 -1.3769696 0.03382926 -0.5838101 -0.7771045 -0.04770196 0.8774573 0.7061112 1.4383041 0.663434 0.85010564 0.004099809
canteeen -0.44184226 0.7583671 -0.9041055 0.02805342 -0.9330664 -0.31618443 0.8795178 -0.8905396 -0.42281127 -0.61251897 -0.09977033 0.46031252 1.1915051 0.32192922 -0.37476018 -0.32995397 0.6886642 -1.6500099 0.19070895 -0.54330045 0.52068603 1.6699704 -0.4927862 -0.080787666
haaa 1.2908734 -0.01657475 -0.06851737 0.512319 -0.33268428 0.108480215 0.77748805 -0.50235784 0.9540691 -0.34429476 1.2177204 -0.42140892 -0.78712153 -0.744445 -0.10300904 -0.63506854 -0.68827695 0.012873747 -0.30385813 0.083319604 0.77180475 -0.29559165 -1.089233 1.2018824
after -0.22020476 -1.2479417 -0.3442976 -1.5250211 -0.82249486 -1.0885528 -0.382174 0.21603091 1.4418395 -2.1461222 -0.2803088 -0.26626635 0.6798057 1.6652418 0.78845006 -1.0505457 1.3114408 0.60480386 1.5519564 -1.2980696 0.36794263 0.22439516 0.9739575 1.539186
remember -1.3587844 -0.41373166 -0.8486657 -0.4986193 1.5317402 0.5214952 0.4975024 0.14833437 -0.8999896 1.0894375 2.0272884 -0.7429025 -0.61224633 1.6444083 0.3489518 0.073208645 1.1821464 -0.39457425 -0.49764508 1.2171502 0.7709991 -0.47324434 0.1002769 -0.51465964
plus 0.94874185 0.31514594 0.05447432 -0.48653972 1.2670673 1.0426832 -0.2832774 0.8222255 -0.2733423 -0.1523638 -0.47766313 0.23711208 0.76520973 1.2242405 -0.77223885 0.11013896 0.36988732 2.2820156 0.65409094 -0.85793364 1.5850704 -0.66224533 0.5841942 0.47096002
yr1 -1.2592174 -0.40968135 0.41810307 0.1403041 -0.5852676 -1.0782608 0.49601153 -0.25665474 -1.0193545 0.93025994 -0.022543091 0.35168433 -1.3988475 -0.6409908 -0.05610837 -0.6332677 -2.6788678 -0.8055008 0.023557022 0.5169486 -0.704911 -1.6658067 1.023297 -1.4043776
hoo -0.1298816 -0.6263104 0.2888337 0.522094 -1.6857039 -0.89224243 -0.21745183 1.7370212 1.4569129 -0.00808501 -0.23727943 -0.7148855 1.0562713 -0.15822874 -0.9325252 1.0099491 0.42450005 -0.3049767 -0.36067578 -0.06193219 -0.80025905 -1.609639 0.5708075 0.63459945
other 0.31645343 -0.97809774 0.19972211 1.1306788 -0.30979 0.8766349 0.14784275 1.2162236 -0.11806143 1.116064 0.37997466 -0.35721233 1.1407602 0.5163002 0.6407976 -0.99744177 0.56917566 0.5669201 -1.0355107 -0.71727896 0.046968263 -1.4618722 0.8216215 -0.67938393
crop -1.461512 0.22372831 0.06752269 0.27970126 -1.224632 0.045924593 -0.8942982 -0.90937734 -1.2513268 -1.1285396 -0.0801052 0.9460543 -0.026435701 -0.94175714 -0.8821315 -1.1797458 1.2058281 -1.0955065 0.51893604 -2.422181 0.8578542 0.50384396 0.35985053 1.5571567
damn 0.31980994 0.31700298 1.4338485 1.1382937 -1.9421904 0.17822944 0.20277521 -0.79438627 -0.6569596 0.8942596 1.6202757 0.44929534 -1.2803872 -0.31354254 0.9475263 -0.002909044 0.029582288 0.83014125 -0.874048 -1.3110154 -0.39956182 -0.99510616 0.96057826 0.2588774
kids -0.10177861 2.3349438 -0.44641057 -0.68521935 0.30600274 -0.43101373 -1.6889563 -0.5430472 0.17080715 0.68503845 -0.026843568 1.2047496 -0.21958725 -0.5705528 1.0924939 -1.2740582 2.3072903 1.9374917 0.87049174 -0.23187587 -0.62373376 1.0221378 -0.8497462 0.25309455
40 -0.5581933 0.05903652 1.8827976 -0.07145135 -0.92626697 -0.0091534015 -0.6472641 -1.8785359 -0.37723297 -2.9101276 -0.19799373 -0.27512863 0.21503855 -1.1571465 -0.45500693 1.0511925 1.6780096 -0.29280975 0.663701 -0.35211504 -0.25225067 0.4808029 -1.5648093 1.3347639
max 0.23100314 1.4002571 -1.653102 0.5184648 -0.17143084 -1.0352875 0.2653389 -1.466269 -0.47536063 1.6617806 0.54784936 0.3877985 0.7951314 -0.82140416 0.57719654 0.9057709 -0.15080601 1.6408964 0.807317 -0.5950679 -0.80593586 1.8531847 0.545743 -1.2011406
week 0.3545748 -0.37595233 -0.26054242 0.01227517 -0.5694026 -0.65392715 -0.39424247 -1.850156 -0.78857434 0.9116244 -0.18748252 -0.8573265 -1.1551759 0.2777327 1.2985332 1.6989647 -0.65012264 -1.2458864 0.19279446 0.20599446 -0.83617693 0.6513146 0.7926512 -0.882078
ate 0.09090487 -1.1010027 1.1998929 1.4013485 -0.3266509 -0.8969029 -1.3569002 -2.5433657 0.3484894 -1.317861 0.15227158 0.5384272 0.001170702 0.029989744 0.34985566 -0.95431924 1.7511733 -0.31371415 -0.6971187 0.19965798 -0.28525582 -0.08052254 -0.03733945 -2.0995913
bit 0.20654432 -1.9614801 -1.0440363 -0.31322888 0.11793759 0.9025267 1.4126015 1.332125 0.73971456 1.0569422 -1.8043205 -0.53418785 -0.74500465 0.005790032 -0.66248083 0.7825516 1.7667452 0.21866155 -0.22227514 -0.8871688 -0.50645345 -1.6400499 0.43034357 -0.0014590949
talking -0.94941974 -2.3853636 -0.02318238 1.480752 0.56310564 0.22934219 -0.88152885 0.6541133 -0.8963274 -1.253105 0.82165354 -1.6763927 -1.5846399 -1.1293555 -1.2909712 -1.0646212 -0.97538817 -0.5803566 0.36557952 1.7418859 -0.29282546 0.6916948 0.67702067 0.13040751
people 0.5021988 1.816207 1.6251467 0.7153456 0.35822234 0.43734607 -0.64775974 -0.009391043 -1.377192 -1.3070341 -1.5953795 -0.32101658 -1.0110773 0.54301536 -1.4505856 -1.3916649 0.7480832 0.09360204 0.55559206 0.039526466 0.50755733 0.006557126 0.45346558 0.69001114
any 0.82148343 0.21026401 -0.039258294 0.018219676 0.102082476 -1.0270337 0.49999738 1.7800515 0.83991736 0.84073496 -1.4523443 -0.7952208 0.83888847 2.6616085 0.8314874 -0.6311665 -0.39321968 -1.7251573 -1.6684284 0.6171747 0.550462 -0.5537384 -0.9393241 -0.20754111
today -0.35047916 -0.8623947 -0.053871106 -0.7255927 0.92462313 -1.7069983 -0.9702758 0.66804093 1.2068634 -0.60024774 0.8763104 -1.0757514 0.7762586 0.43212637 -0.36545208 0.39297935 0.5437633 -0.06490021 0.62282556 0.2422734 0.28582457 -0.2272023 0.046483748 -0.7231463
my 1.3697971 -0.15953544 0.5261997 0.5057936 -0.6235127 0.20775095 -1.023473 -0.042515 -0.078637294 -0.7073947 0.07402531 0.9858214 1.5142187 0.60888475 0.48290986 1.6473773 0.11795822 0.5346942 0.03075453 1.8427597 -0.59804946 -0.42192566 0.16055429 -0.014929333
forever -0.9520024 0.5649837 0.9045432 1.9909859 1.4575608 1.2778491 -0.4017873 0.33273816 1.8073943 0.15108973 -0.9335444 -0.8846593 0.14868692 0.35966447 -1.155502 0.553237 1.8022968 1.5953958 0.1099891 -0.19050919 -2.0407062 -1.0951698 0.35568213 0.7044268
from 1.3308902 -0.11018181 0.7363816 -0.221317 0.13888477 1.4615608 0.23629288 1.8592787 -0.100001074 0.9868781 -1.4288119 -0.483512 -0.32809147 -0.56414205 -0.062324375 -0.21393494 1.9117734 -0.29322118 -0.5622647 -0.99203634 0.37583885 -0.70121074 -0.6857239 0.8582605
rude 0.15834107 -0.4184455 1.803523 -2.3441741 0.33083007 -0.30564922 0.051632494 0.0595209 0.18013065 -0.8814266 2.4354506 -1.2368889 -0.062303625 -0.67295736 -0.45525464 0.18696474 0.28788984 -0.67505795 -0.6072825 1.4819374 -1.5440074 1.1580665 1.8621082 0.1566484
unfrenly 0.115339965 -1.7818449 -0.86162305 0.8988988 1.7099086 -1.684705 0.3533981 0.73026675 -0.59851617 0.0382239 -0.30519545 1.5346884 -1.46486 1.2931259 0.8771657 0.14033863 0.62229353 0.9736971 -0.37436116 0.2108618 -0.8541794 0.6144264 0.365486 -1.5600626
mugging 1.0143151 -0.45796177 0.8400782 1.0781698 0.913595 -0.37867934 -0.21949491 -0.49155986 1.2159095 0.534119 -0.031489674 -0.1463486 0.23926674 -0.98588324 -0.094583206 0.4458049 0.85383147 0.96717864 0.8627709 -0.18421404 1.4918759 1.288075 0.44931027 -1.1248207
sia 1.2158077 1.5909039 -0.2354876 -2.127484 1.9509667 1.1521676 0.14559533 0.60023904 -0.9898285 -1.2071825 1.4610758 -0.837741 0.09260067 0.013311527 0.16708592 1.0510812 1.2070563 0.09364614 0.114070445 0.5928473 0.23924746 0.3687182 -0.71789056 -0.46443716
yr2 -0.098217554 -2.3129838 0.766201 -0.57486403 -1.081653 1.6540687 2.3231282 -0.7855729 0.14170405 1.2836559 -1.8336475 0.004238139 -2.1392207 0.22495927 1.653284 -0.4726139 0.17694008 -0.62064326 0.8664267 1.4517308 -2.0705075 -0.49989226 -0.6868845 0.09297705
im -0.4051858 0.38992682 -1.0428815 0.43500876 0.014802621 -0.68380046 -0.3779645 1.1831268 -0.16771734 1.5654334 -0.3786364 0.88266695 -0.045304157 -0.22487701 -0.41561857 -0.08343703 -0.016237082 -1.248108 -1.7462294 -0.34162202 0.68047196 0.65152615 0.18687056 -0.25392416
thurs -1.3210281 1.8122863 -0.47604117 -0.05379459 -0.10608652 0.7271882 -0.14383611 0.6522003 -0.5438354 0.56488407 -0.64557964 1.6703186 0.061557595 -1.2581929 0.55749214 -0.32065493 -0.39201233 0.25433353 -0.6507473 -1.8138427 0.44741237 0.457246 -0.06973437 2.612956
many -0.47114462 1.9429152 -0.31174514 -1.4333653 0.57713246 1.3449203 0.28543404 1.0097914 0.78530234 1.4748889 -0.5163769 0.99705404 -2.764261 -2.4687026 1.2872434 0.06925273 -1.0132316 0.7197057 -0.3455656 0.6122468 -0.6498321 0.34687075 -0.6808767 0.3660422
yar 0.07002954 -0.6721127 -2.4315636 -0.3623612 -0.177717 -0.49141952 0.5851834 0.0760778 0.34507665 0.7808096 -1.0099888 1.6188594 -1.4377759 1.8649721 0.51645344 0.20273606 0.72277296 0.62702376 0.22720242 -0.53698754 0.34113166 -0.7860679 -1.4458171 1.7177843
planning -0.80040485 -0.00013236511 -0.29393578 0.73375005 -2.5295794 -0.6191522 -1.3973693 1.3415487 0.94005674 -0.2871678 0.18040024 0.6362227 0.54530114 0.06213125 0.16183384 2.0857172 -0.2739454 -0.5987175 -0.1160446 0.91127735 -1.865562 0.46775758 0.12573619 0.35265473
tthe 0.4194133 -0.80020577 1.0805066 0.30510667 0.17549655 -0.86548436 -0.8468689 -1.1863369 -0.08744942 1.429579 -0.64099133 0.22965461 -0.13606201 -1.8002682 -0.48549452 -0.13326278 -0.5262572 0.56125927 1.2631712 -0.29447752 -0.9584823 0.06098721 -1.1663753 0.26159644
teh 0.64818895 0.056924433 -0.9939377 -0.031129772 -0.35408092 -1.6749761 1.5714486 0.38835004 -1.1946403 -0.3421537 -0.37390497 0.008656635 -1.4056141 -0.45629025 0.71655005 -0.41562605 -2.1969614 0.08100849 -0.26436222 -0.0012850389 0.53855014 -0.40770087 0.14629608 -0.30475995
old 1.0938795 0.6451829 0.04443706 0.5857918 -1.2301124 1.4651136 0.755365 0.3646306 0.05703021 -1.5872838 1.0345645 -0.43810815 -1.1530513 -0.12101975 0.35573205 0.1461036 -0.11736064 0.26449805 -0.18639456 1.9425825 0.64199156 0.09738071 -0.40358013 2.0980794
touch -0.46629944 0.7921857 -0.68146825 -0.9355151 -0.6729325 0.0307633 0.53321385 -0.2973309 0.015069836 -1.2459747 -0.7471732 -1.7424402 -0.15165657 -1.4833477 1.84853 -0.3347694 -0.6715551 0.51049745 0.16455421 -0.49898136 -2.025844 -1.3438789 -0.89802766 1.6512237
eng -1.5131922 0.16780142 -0.3475936 -0.12728763 0.2397726 -0.8207431 -0.6370189 0.7863476 -0.5814244 1.0460211 -0.8051141 -0.78128207 0.035549667 -1.0591449 -0.594457 0.72003067 0.85650545 0.13865258 -0.15449703 0.00011572229 -1.0669693 -0.33435553 -0.1282767 0.7572639
sde -0.19010916 -0.70233595 0.63078755 0.5607599 -0.2114715 0.9980879 0.332662 -0.8669583 0.5580187 1.2815428 -0.5233397 -0.2994803 0.3950042 0.5246949 1.9369705 0.26408708 0.42659327 1.0813079 1.5564433 -0.45661524 0.6937236 0.10265856 1.1179291 0.47592768
wat -0.50238234 0.47008362 1.020451 -0.2810295 1.1911178 0.42506465 -1.5736414 -0.039417606 0.3211234 1.1929905 1.379892 -0.06928651 0.6489188 -0.38336533 1.5889132 -0.47987902 -0.9641126 -0.68779963 0.436205 0.8662473 0.9502504 0.018765634 -0.7066851 1.0413454
true 1.78354 1.8094008 -1.581697 -0.55469865 1.2737787 0.28836414 0.29863918 0.052888695 2.4659038 -1.5516207 -2.4701617 -0.07371301 1.0592424 -2.4177086 0.27981275 0.83707094 0.46332723 -0.43100187 -0.791161 0.20861888 0.81096846 0.75161505 0.7096194 1.6182456
going -1.5400155 1.7749313 -0.4309784 -0.27636415 0.33458975 0.27864152 0.26553857 -0.11685647 -1.0983051 -1.7512357 -1.5484828 0.5786696 -0.5824504 0.22841771 -0.027736124 0.81204695 -0.9956959 0.4806551 -0.8559367 -0.17207311 -0.82865345 0.25420004 -0.30850133 -0.8745463
real -0.7098387 1.1065115 -0.014710145 -1.4761908 2.9812174 -1.4874475 -1.065707 0.55588627 1.4280808 -0.2118091 -0.1689671 1.4008647 -1.492603 1.1704781 -1.7254676 0.018281758 0.29013997 0.5717315 0.88634783 -1.1795161 -1.251059 0.39659292 1.0519238 0.008284321
kent 0.681187 -1.8854119 -0.33964646 0.42310965 0.6812672 1.1105715 0.7932105 1.1861582 0.24918522 -0.64624685 -0.2822798 1.5078486 1.3887719 -0.07447899 -1.094485 -1.8663448 0.38710228 -0.32933083 -0.85213566 -1.5513123 0.5912279 -0.719216 -1.5953476 -0.83121806
plates -0.44534498 0.3119819 -1.6571488 0.45466438 -2.084398 2.4160326 0.6146879 -0.29519588 1.4376259 0.7381913 -0.71303684 -0.8913047 -1.6097717 0.8528326 -0.11827689 1.7814839 0.15712218 -0.22782251 -1.4127184 0.7538232 0.51673025 0.8810463 0.33744296 1.834001
bla -0.9819369 0.09848934 1.1898897 0.46383974 -1.4415629 -0.4613557 1.0276831 -0.4480438 1.5317563 0.60187846 0.32167366 0.26939863 0.6459762 -0.91001713 -0.93182474 -0.28322825 -1.8773626 -1.3781776 0.25231245 -1.1857003 -1.8014051 1.4484961 1.0210991 -0.7253426
25mc -1.676245 1.0431035 -0.9636917 -1.3253016 0.9152479 0.8346091 0.43384507 -0.5675363 -1.3121164 1.4033655 -0.985291 0.07672296 -0.5230636 0.3809047 -1.2219895 -0.589349 -0.5717683 -0.1278533 -0.92902696 1.6059418 -0.8746426 1.1336355 -1.435613 -0.4680635
waiting -2.1507146 -1.4863832 -1.3508872 0.22225566 -0.18824682 1.4472567 -1.8145741 -0.005494991 -0.060719848 -0.21507765 1.4223195 0.12662025 0.83324337 0.71689653 -0.39490953 -0.34710437 -0.32714203 -1.3809694 -0.1318881 0.46268058 1.5715305 -0.5646863 -0.53078294 -0.33013278
again 0.023865178 -0.45809394 0.058162645 -1.0375988 -0.35969773 0.45529023 -0.44062525 -1.0116528 -1.2371454 0.42700815 0.5349971 -0.081233576 -1.0922234 0.24275905 1.8089033 0.119031824 -1.2839035 -0.6457165 0.013353165 2.0821462 0.36923695 -0.94256586 1.0243391 0.9184474
faculty 1.247759 0.3878935 -1.8460697 1.026143 -1.1046574 0.6825187 0.09349728 -1.328558 1.5604082 -0.3740939 -1.3726112 1.1514126 -0.504041 0.8143871 1.5276773 0.8943275 0.9651623 1.07974 -0.5318004 -1.9883033 0.4177024 0.7067691 1.871286 1.7532198
cantonese -1.5877061 -0.19730148 0.3844474 0.15990147 0.42503646 1.3693402 0.67801994 -0.13611042 0.7006853 -0.5107047 -0.64997596 -0.095965445 1.5279973 1.6341091 -0.61971885 -0.41942868 -0.15334749 0.12781084 -0.35772577 0.6289376 0.50943947 0.18582031 -1.1119094 -0.19127303
thank -0.3587206 -0.56904685 0.8592552 -0.07476141 -2.4167747 1.4496373 1.3228222 -0.39214715 0.5017917 -0.55213207 -0.5505176 0.09354033 1.2948661 -0.45767498 -0.7952055 -0.95557606 -0.3672046 0.78410256 -1.8788447 1.0355064 0.6277488 0.70491207 0.43350312 0.36977237
took 0.6025085 -0.1982817 1.4581009 -1.5616033 -1.4505507 1.2218468 -0.31167582 0.24632001 -0.22794785 0.50724316 0.73174894 0.4693238 -0.8618847 0.6085744 1.5413982 0.83021444 0.23839673 -2.2688112 0.40078974 0.9276064 0.071077146 0.5368446 -0.89512646 -1.1433729
bar -0.47263083 -0.59044546 0.97180486 0.52831995 -2.0411255 1.688638 -1.3328693 1.3318533 -0.93248326 -0.12687497 -0.03615208 -0.16703025 -2.0112987 -0.18579541 0.45655984 -0.21606632 0.4829558 0.73838866 1.6190176 0.57496744 0.5000552 -0.3748219 0.17619789 0.9921872
melancholic -1.460571 2.1648455 -0.08576422 1.1026167 0.42646065 0.36625844 -0.7335117 1.346145 0.46728685 -0.18594249 -1.7457529 -0.67003673 0.46220464 0.030079095 1.0348904 0.7437512 0.74603754 -1.0524544 -0.437945 -0.3826344 -0.4125078 1.6124055 0.13019659 0.30322897
ppl 0.94472045 0.31295767 -1.436837 0.39966178 -1.392167 1.8288473 0.24933901 -0.46638837 -0.20636442 0.19324408 -0.26433384 -0.7503197 -0.03346988 0.9633903 0.1681409 -0.26082715 1.1695898 2.2876382 -0.38825816 -0.8199212 0.14805779 -0.4670606 0.7194497 0.03581872
guess -1.1118987 -1.8154962 -0.49551633 -0.2079327 0.4914114 1.498022 0.33160245 -1.028908 -0.013920693 -0.726333 0.08912027 -0.23456004 0.7303403 1.4862093 -1.2619386 0.13367076 0.19342221 1.8384035 1.853295 0.1771343 -0.28685364 -1.0746366 1.3436354 -0.42608008
jap 0.23762207 0.69659996 0.21720268 0.1671198 0.11686686 0.42953643 0.098546356 -0.3066673 1.678577 0.53404653 0.67785126 1.0515954 -0.32267502 -0.95095265 1.3328948 0.11187276 0.7351317 2.0838048 -0.46254456 -1.6477249 0.6049026 -1.8395722 -0.041101225 -0.215123
thread 0.6209471 0.8824305 1.0895554 -1.2924447 -1.4819089 -0.24914958 0.29603708 1.0570695 0.31371313 0.45793596 0.6316871 -0.49703228 -0.3852077 0.0568237 0.0032987036 -0.16488189 -0.021477789 1.1897117 -1.1649709 0.6874339 1.3729017 -0.41176778 0.16729769 0.6997662
queue 0.14735767 1.1532472 -1.4838434 1.258955 -0.083838 0.09547598 0.99623305 -0.8888302 -0.32808998 0.25986713 -1.214606 -0.44284365 -0.35223618 0.042424377 1.2419138 -0.23254739 -0.24935803 1.3197505 0.04635404 0.6920525 -1.7517908 0.30923948 1.3750076 -0.7069646
want 0.745437 -0.14834815 -0.42226458 -0.4463405 1.0703298 0.3679414 0.5577366 1.6458931 1.0970484 0.3294109 1.5631087 0.4246808 -0.2527697 0.8075073 -0.8377343 -0.34566596 0.054558348 -1.0228398 1.0888485 0.83859646 1.0106263 -0.15577346 -1.1508911 -0.4568943
ta -0.28873387 0.31985027 0.17995065 0.35588735 1.7643211 0.5779738 0.2641391 -0.51949173 -0.43280524 0.85361344 -0.038607214 -1.140907 -1.8571087 -0.2363615 -0.34276593 -0.028910937 -0.17900018 1.7921607 0.8195753 0.90019625 0.38804194 0.45762378 -0.69592553 1.7829437
proportion -1.4387987 -0.35606623 0.7321754 -0.367518 -0.82898337 -0.7398986 0.20001362 -0.3999837 -0.6978298 -1.5729965 -0.6492901 1.4014245 -0.40963826 0.6428341 0.2755541 0.9596591 0.9409381 -0.11580594 -0.44368097 -1.4226991 -0.8912021 -1.6172912 -1.109328 0.36735687
ahh -0.38802066 1.0388392 -0.5770822 1.0112853 0.454872 0.35960734 0.8418852 -0.9389585 0.30487677 1.1908274 -0.27393803 -0.10486959 0.5805777 0.36112896 1.5803773 1.2863827 -0.018444382 0.58213776 -1.0444303 0.2656364 -1.6787634 1.0284563 -0.8073236 1.344019
24th 0.8146869 0.7341915 -0.74978817 -0.21570615 1.4633166 0.9488746 -1.7242807 -1.6899998 0.25494456 -0.1826775 -0.5781942 -0.24313733 -0.5741166 1.3506323 -0.7960618 -2.308835 -1.1525425 -0.6660679 0.7521259 -0.10070709 -0.64423317 0.9019594 0.999103 -0.29988754
dude -0.63629955 -0.89682716 -0.19407044 -0.70537245 0.3216906 0.35375482 -2.1946104 0.9732152 -0.033247054 -0.08996378 -1.0620883 1.7484934 -1.2599105 1.1042584 -1.5081353 -1.2713665 0.90080917 0.051156547 1.995417 0.13700435 -0.6645146 0.6733973 -0.16330944 -1.4826845
finishing -1.564744 1.3449367 1.1525176 0.30268383 0.36993992 1.3830154 -0.7738064 0.79991204 -0.2209574 1.3730227 -0.7594366 -0.48506516 0.529773 0.00026820198 -0.8343328 -1.1659266 -1.3377433 0.3829152 -0.048506748 -1.005929 0.45372692 0.90129584 0.1337143 0.11078785
canteen 0.8509785 0.6223459 0.41212645 0.57672685 -0.49201772 0.15570657 1.0854154 -0.9313911 -0.8216971 -0.68404174 0.44943592 -0.759382 -0.6094536 -0.1968804 0.61178476 -1.6995662 -0.11402972 -0.3180836 0.12627378 0.7897706 0.4307263 0.37371352 -0.16937737 0.9665456
tastes 0.7192691 -0.46017852 0.3093052 0.96181285 0.22670686 -0.15706687 -1.1204431 -1.0227522 1.1459854 0.8709839 2.237286 -0.05750716 0.54974425 0.67376965 -0.31184524 0.25386262 1.4229727 0.05579549 0.1023272 0.002778849 -0.8619771 -0.7879767 2.3325586 -0.87840146
compared 0.9211898 -0.8452267 0.85181093 0.5013891 -0.40201387 -0.2818642 0.82788473 -1.5058594 -0.9101816 -0.21194407 0.58460295 1.8690218 -0.5170078 1.0291158 0.7840991 -1.3823315 0.99665034 -0.4237323 0.093310945 0.28569224 0.0765381 1.9247967 -0.10542169 -0.9222284
am -0.09814875 0.5909472 -0.7599748 -0.10474768 1.492405 -0.0927892 0.27245715 0.8567042 -0.40067622 1.0927566 -1.4620486 0.87987417 -0.5699427 0.7084202 -0.09506085 -0.91435736 -1.7391258 -2.3146424 -0.0057974015 -0.43577498 0.43959427 -0.8512478 -1.0996919 0.5128919
were 0.9383799 -0.26525116 2.1689098 -1.2711389 0.76444507 0.1398755 0.47530764 -0.80101717 0.2170041 -0.11294229 1.272104 -0.29549232 -1.282251 -0.64040047 -0.26525316 -0.6089424 -0.78469414 0.12827455 -0.8694215 -0.42435768 -1.4389708 2.6344457 -0.45951316 -0.31236166
i 0.6559489 -0.08376356 -0.26719716 -0.35215318 -0.5736824 0.4112832 -0.3367609 -0.09179022 0.23850475 0.18484437 -0.3164641 -0.8982151 0.7350158 0.19029129 -0.647931 -0.36678678 -0.24173455 -0.6870126 -1.0727776 -0.9305563 -0.14886558 -0.6838463 0.37711436 -0.23830536
pretty 0.6365582 0.90602225 1.3211383 -2.4780927 1.0951283 -0.29755184 -2.0272257 0.53483933 1.0286826 0.8212604 0.9579822 -0.60533756 0.88269305 -0.97701406 -0.6130212 -0.17406353 2.7184043 -0.2836226 1.2346543 -0.07855401 -1.6191772 0.85338545 1.479398 -0.20992342
strength 0.44340006 0.5036401 0.3587015 -0.43409422 -0.46268517 0.64446926 0.43149355 0.4487477 -2.382563 -1.0774343 -1.4315139 1.2347273 0.94171536 -1.246409 -0.6646187 -0.025949039 -0.02982176 -1.4012694 0.7070384 -0.5043785 0.27534643 0.94648755 0.74957156 -1.9500208
polys -0.6674191 -0.93409127 -0.34463075 0.6737864 -0.2122287 0.8541758 -0.9165846 1.1160439 0.44741353 -0.21160705 1.4559731 -0.20029274 0.87449807 0.36483866 -0.67136323 0.53052014 0.06617173 0.38946542 1.9160669 1.79064 -2.2597935 -0.5586818 0.4416868 -0.8261358
science 0.14911684 -0.31486207 0.12252081 2.1846623 -0.5646707 -1.2955309 1.3847913 -0.4783987 2.143768 0.65579534 1.6907145 0.18710178 -1.8208987 -1.0096714 0.14223257 -0.27727222 0.65128946 0.27183586 0.3962422 -0.8846893 -0.23034815 0.9673457 -0.52763027 0.5186703
rabbits -1.2781702 1.8463182 -1.1421562 -0.9186982 -1.4994001 0.79239404 -0.6768173 -0.18967526 0.20452338 -0.36927122 -0.10861442 0.24818751 -0.16771337 -0.79065746 2.9517167 0.44347042 -0.50692046 1.4048116 -0.20444134 -1.2507412 0.9836355 -0.14855002 -0.6047384 1.4097054
there 0.018590262 -1.0670984 0.045292426 -2.1251452 -0.17994797 1.097781 0.5659408 0.42576438 -1.0438634 -0.9766953 2.1261735 0.22093667 -0.26023248 -0.41610655 1.3305665 -0.2515369 -0.49986818 -0.45570913 -0.27962998 0.8246659 -1.1332374 0.15396443 -0.7380665 -0.92629826
sorry -0.7368807 0.8731638 -0.5820229 -1.4679258 -0.2723349 -0.13268039 -0.32588017 -1.2809287 -0.42917824 -0.23944561 0.36565262 0.018614905 -1.7373834 0.70401233 -1.0356152 -0.5675277 -0.8134051 -0.52204096 0.75578755 -0.7427635 -0.5808062 0.5038178 -0.54878104 1.5403068
sem 0.26494375 1.1356523 -0.50512964 -0.18456319 -0.24023102 -0.7720041 -0.30791304 -0.6899076 1.3313135 -0.28683573 -1.8247993 0.30498838 -0.3106784 0.11513596 -0.69804025 0.7017324 0.45179096 -0.34973276 -0.58412665 0.9445533 -0.8775082 0.8799363 0.19717444 0.5175983
30 0.789343 -0.084041275 -1.6516793 -0.12406347 0.25524276 -0.23008177 0.68148035 -1.8553258 -0.70923865 -0.12181169 0.13152201 0.7514882 -0.8624638 -0.0817237 -0.845864 -1.0107626 -0.97723275 1.3884839 -1.1595057 -0.20532182 -0.37381008 -0.6122769 -0.6650498 0.14393866
yr 0.7350319 0.6667064 -1.3375379 0.21961246 0.14199181 -0.64113384 0.43654522 0.45131928 -0.69879794 -0.28759652 0.31574482 -0.009443633 -0.105435446 1.1190733 -0.6395321 -0.32716048 -0.22379504 0.11187299 -2.0925293 0.023967247 -0.63608956 0.11598704 -1.4377854 1.2715039
alrite -1.7485304 0.08024897 0.6352608 0.5992502 1.3634694 0.8860062 0.371949 -0.87301856 -0.09710826 0.5482564 -0.7440925 0.19537182 0.10757039 -0.12135781 1.4552293 -1.3033582 1.4142 1.2465941 -0.86246437 1.1696856 -1.407984 -0.7989102 0.16003412 -0.836381
skirts 0.7324273 -0.78226674 1.143226 -1.5128425 0.16055675 -0.8971016 -0.22638093 0.5942615 -1.1144359 -0.016048653 -0.54666936 -0.557353 -0.50200766 0.12967418 -0.113544755 0.4407379 -0.06570114 0.83306545 0.078174464 -0.7138603 -0.5788935 0.022183673 0.12496904 0.41440892
here -0.68702275 -1.7214401 0.18071927 -0.15237713 0.48714262 -0.29185867 -0.42760327 1.0592637 0.65810716 0.025503853 -1.1930352 0.5242685 -0.26714015 -0.8410959 -0.51851094 0.4768355 -1.0312198 0.9160795 0.00404037 -1.0568013 0.4550479 0.026283223 1.06067 -1.2028925
inch -1.6889663 -0.40669674 -0.09332561 0.013676077 -0.66739273 -2.7023447 0.19494514 -0.6371242 -0.43009844 -1.6897582 -0.86370796 -0.61397755 -0.6054594 -1.829638 1.2413242 0.04450908 -0.6921533 0.3528075 -0.68859667 2.012548 -0.27335486 -0.89962083 2.103685 -2.7235665
gootnight -0.70365965 0.73701924 -1.0559636 1.2038776 0.7204359 -0.3180587 2.1370423 -0.40868303 -0.8845903 -1.2001787 -0.69292104 0.34034577 0.0034072965 -0.041275226 0.6495968 1.1799046 -0.724555 -0.74145424 0.24138634 -0.80065584 -0.76922476 -0.43967235 1.3121216 -0.4830649
overhyped -1.1916536 -1.3050263 0.614082 0.61311305 -1.4287322 0.29277 -0.85931915 -1.1661024 0.2697192 1.5859632 -0.30100226 -0.4966982 0.07383963 -1.7196978 -0.51302034 -0.8717544 1.6298792 0.4035976 1.1887705 -0.6617436 -0.8589389 -0.35289896 -1.3484936 0.9714775
bad 0.38934633 -0.92559135 0.65434664 0.7389398 0.60632885 0.5919024 -0.8779364 0.63494295 1.0361513 0.09202318 0.17245312 -1.3893073 -0.51777846 -0.7884844 -0.3425838 -1.1709571 -1.2029595 -0.16835234 -0.11007275 -2.6294334 0.9484538 0.5688255 0.4684743 -0.90542334
foo 0.42735535 -0.6711377 -1.1472222 -0.60599136 1.1174124 -0.36751795 -0.14432058 0.10968594 0.08823011 0.4745068 1.5375867 0.6538097 2.10424 -1.179746 -0.29815915 -0.32618603 0.15017824 1.8088794 1.0736362 1.7827939 0.49936852 -0.8211404 0.114814326 0.36871466
flame -0.35818407 -0.037272807 0.027236545 0.7209609 -1.9446445 -0.04444753 1.6602209 -1.3876979 1.3791877 0.99612015 -1.0377091 1.1981809 -1.0335265 1.157708 -0.27891302 0.6384198 -0.768101 0.51223904 -0.849582 1.7768784 0.6803812 -1.5327975 0.2573757 -0.96105653
genki 1.5175914 0.015403742 1.2561725 0.49998084 -0.4408628 -1.7710184 0.19512106 -0.36414108 0.45731893 0.7405321 0.12209917 0.14680068 0.8974535 -0.9108904 0.7554675 -1.2216582 0.44686824 0.7883736 1.4803047 -1.0896635 0.1519136 -0.012917561 -0.49834225 2.306999
fac -0.031054206 0.2538541 -0.6545879 1.180069 -0.24403074 0.075156726 0.0074649835 0.6813858 0.30578676 0.7246174 0.44711772 -0.41309708 -0.051144075 -0.017576259 0.87752914 1.2112076 1.7034857 0.24432531 -0.31596348 0.49334008 -0.7927704 1.1283482 -0.93910724 1.2570268
ultra -0.44320527 -1.4371624 -0.22692612 0.46798855 -0.90046173 2.2408707 -1.0616975 1.2989185 -1.1714758 1.3372691 -0.70060885 0.9614201 -2.7187667 0.9855463 0.8374047 0.44452333 2.3337698 -0.6421737 1.3525699 0.3831461 -0.43140447 0.6214759 -1.78986 -1.2666126
1st -0.11029145 1.686652 0.022185508 0.098093346 0.7463199 -0.73206484 -1.3002044 -0.06983306 -0.9707268 0.36197612 -1.4120666 1.5960834 0.1912985 -0.6184324 0.5109146 -0.60569954 0.443038 -0.8922578 -1.1376408 -0.78103924 0.37340277 -0.8006845 1.2912205 -1.3330863
song -0.18536653 1.3608142 1.3233175 -0.24910161 0.2669288 2.4697828 -0.5955772 0.18454567 -0.29018867 1.2361412 0.26889914 0.74753815 0.8689942 0.08608446 -1.1255637 -0.5029901 -0.428319 -1.5280071 1.2856579 -0.9447962 1.302426 0.33847433 -1.3283226 -1.4951606
mechanics -0.61302984 -0.20187894 -1.8940432 -0.4323693 0.10071516 -0.0269287 -1.1280484 0.7972646 0.24040937 -0.08153886 0.052434478 0.5351735 -0.7530358 -1.864726 0.38631597 1.1043947 -1.0429186 -0.930187 1.5813406 -0.16841318 -0.0033581646 -0.21947716 0.3524829 0.8303508
wats 0.21914147 1.3565211 -1.358117 -1.2866186 0.6421318 -1.7621381 -1.3138237 -0.14373468 0.5504974 -2.6607103 1.4155462 -0.38183746 -0.164837 -1.203198 -0.41674688 -0.67389935 1.2517728 0.9776744 0.22996777 -0.28883395 -0.013364922 0.42447728 -0.06182763 0.22210023
if 1.9810575 -2.5454824 0.30014145 1.4968438 -0.9882653 -1.2164185 -1.1800346 0.043335218 -0.754983 -0.5037575 1.9966437 0.5912543 -0.11584789 -1.8523283 -0.0716305 1.9454228 -0.07588059 0.13763666 0.28001404 0.23799674 -0.24943757 0.288272 0.8114242 0.21685082
yes -0.14898 -0.06609208 0.6004747 0.23227277 2.0835106 -1.3065958 -0.62932473 -0.68867654 -0.34149578 -0.64407766 0.25305417 -0.6824301 0.32753062 -1.1144897 1.5245769 -0.40463415 -3.6454508 -0.11661539 0.59835 0.67770725 1.0186261 0.08492922 1.3683645 0.4065055
dont -0.5205585 0.5088886 -1.1505989 0.18648599 0.89059234 -0.4799207 -2.9241662 0.5327615 0.031811133 1.0506063 -0.77062815 0.81000775 0.09805394 -1.0810535 0.6399358 2.1818132 -0.08666627 0.53012645 0.20237756 0.56176186 0.4428983 0.4188407 0.23147611 0.9014785
just -0.75089645 0.018858876 -0.1050306 -0.5333471 -0.09857816 -1.1205553 0.5681392 0.08554919 -1.1143297 -0.788 0.43142188 -0.7571594 -1.1941105 -0.54034406 -0.46718338 1.0583135 0.88473505 -1.4040279 0.7714794 0.20978542 -0.91339475 -0.42416316 0.95767075 1.1494578
say -0.26523635 -0.27904558 0.78663933 1.5091542 -0.4595673 -0.019765392 0.6163182 1.0474796 0.7880515 -0.22086704 -1.62825 0.63031775 0.25553283 -1.3113943 -1.6849015 -0.7205627 -0.5097029 0.68248737 1.9156814 0.28199002 3.2670257 0.27772218 -0.6030371 -0.93165123
describe 0.5234181 0.48947626 1.3692704 0.82787263 0.6703612 -0.8819163 -1.0499884 -0.10577346 0.81789213 0.63883793 -0.32767665 0.16344035 2.084851 -1.4088634 -0.063027844 0.13795356 -1.7914616 0.26888067 -0.46444416 1.2662189 0.7900034 2.1531737 -0.34674066 0.5079778
sig -2.3674397 1.6335293 -0.62275845 0.05612732 1.0722121 -0.90225136 1.3978993 0.059612073 1.2656132 0.27016446 0.3984052 0.7510164 0.95557976 -0.71665245 -0.449953 1.1572416 1.2604259 1.4797965 -1.3704556 0.3447452 0.8795683 -1.5409453 -0.51941043 0.8443498
becos -0.8757173 0.024416953 1.8913946 -0.29926205 1.3467818 -0.5442962 -2.0965056 0.20588505 -0.20231853 -0.18773848 -0.34333915 1.8149929 1.7466469 0.7558353 0.9929902 -1.1165935 -0.6783415 0.5056478 0.5134093 -0.53576434 -0.5629655 0.3288193 0.35167134 0.40082568
cheap 0.774553 1.0717412 -0.04382193 0.8270348 0.5815564 -0.1454459 0.28693262 -0.28990862 -1.0206726 -0.19054848 0.5692413 0.5669368 -0.96733 -0.16656443 -1.1093427 0.32846686 0.24229224 -1.0998389 -0.34321263 1.3689053 1.4799572 -0.58007514 0.9984291 -0.68242276
rather 0.120453134 -1.4966341 0.06588891 0.04963695 -0.027209966 -1.8488383 -0.44973022 1.3143167 -0.3724822 -0.5863537 0.45161673 -1.0996894 1.0578994 1.0475314 0.5037499 -0.9480381 1.3959147 0.9163844 -1.3159219 -1.430312 0.1017992 1.0334017 -1.323692 -0.4943147
filling -0.7364665 1.6428512 0.5879099 0.8552665 -0.9073029 0.91134083 -0.7214611 0.102765605 -0.10762432 -0.33488992 0.3932314 -1.0784308 -0.31886983 1.8836247 -0.66633874 -2.1682203 -0.098093316 0.12110778 -0.3892139 -0.84809375 0.8458996 -0.26675487 0.68598413 0.6861448
rarely 1.3895209 0.36668196 1.6323423 -0.61713403 0.9874123 -0.3072694 1.5583608 0.18663777 0.07881026 -0.6988396 -0.31777978 -0.41664055 0.4418647 0.3055173 0.21416847 1.3191893 0.97270447 0.735855 -0.5861677 1.7240622 0.035932288 0.1103892 0.20587505 -0.54488456
egg -0.43225515 0.960684 1.417037 -0.02946094 -0.028777974 -0.3251604 -1.4002726 0.4971855 0.5005429 -0.16808465 0.4906954 0.15563843 0.9725649 0.48722908 0.175107 -0.24427001 0.13322271 0.105900794 -0.74071896 -0.69021267 1.3703614 0.6963607 -0.2838558 -0.00090211234
mutton 0.09926794 1.5960248 -0.37135255 -0.6650477 1.7567668 -0.11663334 0.99046767 -1.1182477 0.79909325 1.5785106 0.2951548 -2.6878552 0.9243825 0.44541976 -0.31035787 -0.50710344 0.40392557 0.09475133 -0.40043786 -0.5403754 0.74494344 0.6779552 -0.78113407 -1.1625899
sems -0.48646945 -0.7850801 -0.14423485 -1.4887213 -0.92872757 -0.9817939 -1.1885687 -0.3930188 0.78285974 0.4250497 1.1130345 0.78577375 -0.32827243 -0.3310464 -2.0527065 0.4116084 -0.089398496 -0.19647135 -0.45415735 -0.6370472 1.4754571 -0.62896717 0.30749065 -2.1729534
time 1.230124 0.19406782 0.7715022 0.012905522 0.29863328 1.0832766 -0.16539383 1.2879692 -0.15605877 -0.47005177 -1.0435089 -1.0802164 -0.38549158 0.17921382 -0.83774155 -0.45340806 0.577906 -0.53891164 -0.84835327 0.99259114 -0.5556073 1.7321553 1.4646897 -1.4740033
prata 1.5333633 1.4838538 0.22109932 0.63562804 0.7363711 0.10052613 1.3672011 -1.4928956 -0.07474708 -1.3204082 1.2105308 0.412548 -1.3696729 0.91958046 0.4731217 0.97236323 -1.0976982 0.07215283 0.41655475 -1.1086458 0.44359994 -1.3095218 0.3709733 -0.03313365
wow -0.9407948 -0.8680275 -0.3599541 0.30579922 -0.1525146 -0.9481275 1.9158325 0.51172674 0.44152364 0.95316434 1.5589894 -0.21766883 0.5997378 -0.43433434 -0.11906095 -0.058700398 -0.75914586 -0.16215794 -1.0827806 -1.0837389 -0.9565448 0.22037983 -0.43080297 -0.25187677
lolz 0.116201706 -0.8824538 -0.21176466 0.9954933 -0.82857233 1.0120894 0.18263654 -0.1588052 -1.5106161 0.70489585 1.2957119 -1.5680075 0.68915504 -0.8375825 -0.39723003 -1.1391644 -1.7445796 -0.1758571 1.4472058 0.9644139 -0.37637353 1.1602336 1.6241298 0.51798546
mech -0.08258631 0.7484577 0.8480744 -1.7804362 -0.89830035 0.8194557 -1.8595657 -0.015353883 -0.7820448 -0.12385999 2.8277893 -0.11387107 -1.257451 0.0060075945 1.3535025 -0.89985234 0.53018814 0.028450528 -0.9020988 -0.66328657 -1.3746845 0.49385422 1.6627728 0.80226886
dj 0.81023717 -0.18471615 -0.924904 0.42105898 0.3422219 0.12349342 0.99143875 -0.29222804 1.0367645 1.4678767 -1.5265615 1.1330247 -0.16029698 -0.24905387 -1.0922482 1.0524846 -0.70475537 -1.4658777 -1.3251077 1.4928532 1.7020814 1.1264966 0.036858216 2.6215549
pahang 0.65190643 0.73241913 0.12806073 -0.74055415 -0.57450646 1.2384585 0.76140094 -0.44061008 -0.35280252 -0.288942 1.2973698 -1.3839115 0.5565118 1.1138126 1.2204982 0.32896867 -0.18338187 -1.3302642 1.0342956 -0.4406872 -1.934415 1.8066993 -1.8403686 1.8452202
serving 0.11213478 0.58009714 -1.616176 -0.35022572 1.362778 1.7636317 0.19707729 -1.4567658 -1.1594462 1.1315898 -0.88907677 -0.49787542 -0.2154756 -0.18023142 -0.27666742 -1.221722 0.7786774 -0.4343706 -0.18608111 1.1575927 -1.7290654 1.1301508 -0.73216665 0.5033979
thats 1.370051 1.328207 1.7806785 -0.50466406 0.6997085 -0.016130706 -0.92917514 -0.056783784 0.03383817 0.9657991 2.0929797 -0.53817475 -0.068584315 -0.55364966 0.9141083 -1.1746663 -1.4906392 1.0036228 -0.9563135 -0.80145264 -0.6490977 0.9589725 -0.4156493 -0.23069108
move -0.3075786 0.6769116 0.47493893 0.4082849 0.077707246 1.126961 -1.0169713 0.037854277 -1.8510692 -0.7777985 0.06711788 -0.3909919 -0.46683586 0.78849256 -0.5928854 0.8345196 -0.4007036 0.9201868 0.7881881 1.4238139 -0.15516508 -0.46919817 1.5272045 -0.6420484
notes 0.6033986 1.1707007 -0.61367875 0.15328616 1.9295284 -0.35271648 -0.3139121 0.54343945 0.8768397 -0.7335717 0.96252626 -0.5489871 0.47461668 0.84059757 0.70437133 1.0855824 -1.2793971 0.70703125 -0.39438653 1.7997439 0.3708242 -0.33123067 2.7893069 -0.10602712
monkeys -0.30589846 -0.53273 0.026329853 -0.96695334 1.289646 1.2305307 2.746959 0.5148886 1.355097 -1.2605277 -0.5692649 -0.04944974 0.012377375 1.4723015 -2.415797 0.065840915 -1.2071538 -0.2460215 -0.25969514 -0.24176727 -2.1339788 -0.20937222 1.5943807 -1.5886018
counting -0.9455549 0.8764076 0.6872212 -1.6161069 0.6448746 -0.45824403 0.8411827 -0.053673945 1.8397965 -1.1863815 -1.6304082 -0.48407316 -0.6557296 -0.6714281 0.45882037 -0.045876727 0.7842089 -0.30139142 -0.15805852 0.53476846 -0.4014514 0.5817493 -0.9453044 -0.9334455
limited -0.35458395 -0.07146577 1.1956626 -0.9347215 -0.5040632 0.034956433 -1.1828496 1.362349 -2.159664 -0.3668964 -1.6550652 0.40950724 -1.3765258 -0.7262516 -0.80219626 -1.346432 1.3062707 1.4929426 -1.4345837 0.45736778 -2.0410924 -0.108300865 -0.29575416 -0.19147192
of -0.79638016 -0.26921394 -0.13867858 -0.9722659 0.5387652 -0.37043756 -0.35632852 -0.7994198 -0.17967667 0.58621114 -0.5656494 -0.9632111 0.5996968 -0.78127676 1.1166136 -0.5645864 0.73363084 -0.4155606 -1.1858443 0.06604204 -0.40145156 0.53381765 0.5719887 0.63570446
ve 0.66181827 0.80731076 -1.7918142 2.2938094 -0.035052754 0.6855682 0.73525876 1.56863 2.33152 -1.3608998 0.9418529 -1.6768428 -1.858868 -0.96828866 -0.4237776 2.3975914 0.16344014 -0.7867589 0.38238212 -0.3914179 0.4099564 0.18968078 -1.5563086 -0.3819744
everyday 1.1797644 -0.9367365 -1.3008763 -0.017328536 1.9146186 0.9892902 1.7273386 -0.27765068 0.48230037 -1.0337585 1.1377465 0.29774484 -1.2101333 0.7810567 -0.35527122 2.621885 0.05550392 -0.7260391 -0.92350686 1.262864 -0.026889464 -0.9696133 1.221556 -1.0618631
have -0.047352344 -1.1812344 0.4250922 -0.70610666 0.8025699 -1.576132 -0.49399447 0.28515902 -0.32454282 -0.2510486 0.5602947 -0.49413294 -0.84084123 -3.1258194 -0.8524351 0.7939188 1.5922307 -0.76368666 -1.8689493 -0.30058295 0.67048043 -1.0262227 0.16466144 0.40665773
nuttin -0.9608392 -0.73650545 0.8729576 -0.2681134 1.068749 -1.639541 -0.31095102 -1.7701558 -0.33981502 1.1943662 -0.29577553 0.3387785 0.10522599 -1.2078704 -0.38475612 0.9231016 -1.5995685 -0.09010776 2.2838793 1.54571 0.36253363 -0.11626223 2.2118902 -0.59514946
paper -1.3433425 -0.648788 -1.0676666 -0.15987752 0.43144912 -0.42536962 -1.3149232 0.2427579 -0.11197033 1.9911087 -0.61142284 -0.8678586 0.27992383 2.1232195 -1.3871982 -0.28306797 -0.41612658 -0.89527106 0.57476395 -1.3746752 0.1338633 0.92657286 0.897608 0.07212818
pple -0.80060136 -0.96832794 -0.8783047 1.2646989 -0.82680964 1.0587933 0.82933843 0.44245362 -1.8723218 0.7522333 0.3024527 0.5238645 1.319758 -0.7386117 0.15084133 -1.4649699 -0.2982837 -0.10520263 -0.64781994 -1.003363 1.5152283 -0.9540366 1.4141065 0.70962584
env 0.1436369 -1.227804 1.5092148 -2.0358562 0.8396012 0.3459269 0.595192 2.1580384 -1.637874 0.3126355 0.3016872 -0.17334369 -0.8811928 -0.6097794 0.2780593 -1.9249722 -1.248177 -1.9260948 0.03877898 -1.3547316 -2.15096 -0.3947751 1.1516439 1.2446928
15min -0.5823808 -0.77584416 1.744519 -1.0593156 -0.28173965 -0.08135014 0.19840774 2.1105201 1.4007239 -0.052163508 1.1795083 -0.937142 -0.055206478 0.6526094 -0.83425784 0.5481046 -0.24773453 -0.9028436 1.2491989 -0.118391335 1.4953097 -0.52752227 -1.0880404 0.44519526
samantha -0.08561236 0.37081128 -0.08305158 -0.6650273 0.038445372 -2.0385425 0.5566719 -0.076393776 0.32854277 -1.1968379 -1.8406745 -0.27589288 -0.84955484 0.9423829 0.13998996 0.13614134 0.7136624 1.474715 -1.0378094 -2.4477012 0.09476638 -0.260172 -0.3643186 -1.7137041
same 0.449137 0.381295 -0.033248477 0.32708004 -0.38390353 1.2693052 -0.6025714 0.99215865 -0.4125565 0.7178826 -0.24089101 -0.070856825 1.7946861 -0.63015306 0.13191259 -0.44955045 -1.3468586 -0.2724795 -0.48475695 1.2479839 -1.2585968 0.67400336 -0.045913614 -1.7428199
whos -0.24463488 -1.0352652 0.7297989 1.5167534 2.1424472 2.5890148 0.29898384 0.99260455 -1.4759002 -0.16352533 -0.68771887 1.256241 -2.2379353 -0.4197897 0.50335187 0.27778858 0.9048757 -1.4430529 1.997359 0.5327859 0.46504152 0.341552 -2.3943355 -0.3131062
seen 1.1373706 0.7010058 -0.2796357 0.6738719 1.2612387 0.98303914 -0.85644376 -1.6183286 -1.5861093 -0.08848395 1.2543613 1.4888806 -1.6289582 1.1848886 1.6823715 -0.19571304 0.24788404 0.48176247 1.3170333 -0.43995425 -1.056229 1.6720846 -1.4985521 -0.52947754
similar -0.063100934 -0.48476496 0.8933198 -1.0130888 0.16341554 -0.5935304 -1.4587729 -1.0660908 0.26700252 1.2614965 0.08457917 0.11772414 0.43699536 1.6357868 0.9647557 0.54101783 0.7559142 -1.2306434 0.19849202 -0.44435534 -0.16463698 -0.8114251 -0.2624078 -0.22571959
thankew 1.1414781 0.28310376 -0.8995135 -0.17454208 0.9645342 -0.7942697 0.05954969 -0.26396224 -0.90100235 -0.9210171 0.33981484 -0.6857797 -1.0622376 -0.37336934 0.5464744 1.2832173 0.9388979 -0.1045916 1.5936466 0.20901567 -0.07109644 2.0985954 -1.5805972 1.1290978
times -1.1162395 -1.3902001 0.5462573 1.736892 2.165558 -1.7670071 1.5431947 -1.025681 0.48686635 1.0775218 0.09901221 0.7527162 -1.2416588 -0.57000774 0.15022343 -3.0181046 0.23916966 -0.21212378 1.3812816 0.1831074 -0.84562117 0.108373016 -1.4621761 -0.50652236
torch 0.25066644 -0.5214466 1.1444674 -0.12603621 -0.6918567 -1.1935586 0.12896325 -0.14160068 0.57102513 0.7506908 -1.821501 0.20977949 -0.9950012 0.83379567 -0.8903917 -0.2186026 1.0684346 -0.18011434 -2.0098586 -0.14098813 0.4936247 0.43572474 1.0062696 -0.9861929
left -0.9749987 0.89837235 -1.000624 -1.2401268 1.2491413 -4.9512734 0.13420074 0.99269813 -1.0751194 0.3288867 -0.71508604 2.0493371 0.042858686 -0.67365974 0.79543 -0.061781615 -1.6772847 -0.061811157 -0.011412769 -0.41736832 -0.33110586 -0.51889825 -0.043121744 -0.66747135
auntie 1.014445 -2.2038205 0.50955886 0.41530985 0.81377095 -0.9242924 0.6516179 0.1489877 -0.15286286 -0.6784418 0.27197194 0.6834752 1.2434771 -0.15032992 2.9046936 0.11040933 -1.243591 -0.118447796 -1.3342768 0.7961986 0.77249444 0.97578543 -0.29583344 0.652214
ho -0.27317926 -0.053522486 -0.10741502 1.2022029 0.98079926 0.56251866 -0.6277394 -0.20541441 -1.4054592 1.701664 1.2816348 0.14255893 -0.7045239 -0.61501443 -0.17490388 -1.4378923 -0.9757789 -1.5278584 -2.3140504 -0.18109924 0.9314069 2.3953846 -1.6974831 0.009399785
eberithing 0.46700186 1.3277993 0.082762524 1.4352822 -0.78823525 -1.8471649 -1.3383718 -0.77891546 1.5219837 -0.7371377 1.6042511 2.0328348 -0.9026293 -0.25016668 -0.3836296 0.048160404 -0.49611977 -0.98253673 -0.15911782 -1.7658648 1.133853 -0.30344328 -0.48738965 0.58965266
moses -0.53091305 -1.0804722 -1.2884502 -0.18697423 -0.062772706 -1.0670229 1.2507174 -0.3100943 -0.6902591 -0.5939049 0.080749586 0.6012455 -0.8969459 1.1143501 -0.28288653 0.87287295 0.9727349 0.2977298 -0.8822455 0.2327751 0.14643678 -0.5460608 0.06976788 -0.58081895
worm -0.4898366 -0.85396576 -0.62029076 1.8605534 -1.1619388 -0.4461144 0.78563523 -0.092285186 0.38174635 -0.9580475 -0.691711 0.49089965 0.91343 0.45365176 0.5546102 0.7929941 0.10435499 0.93663836 -0.7164302 0.67432845 0.44843444 0.8493451 -0.3762614 -0.93604743
area -1.3506486 -0.72554857 0.42163005 0.5615376 -0.68813944 -0.106929235 0.43291372 0.5706697 -1.1237779 1.933528 -1.0172956 1.4700766 -0.35686597 -1.0395828 -0.6894715 0.29110947 0.02337258 0.5861138 -1.5254745 0.011871618 -0.09397975 0.06802553 1.2932442 0.18404083
especially 1.2222708 -0.43730873 0.6324467 1.2878388 0.059519045 2.1358511 0.40976897 -0.50916237 -0.2472211 -0.028342627 -0.48007622 2.2686863 -1.085116 -1.0234265 -0.09033997 -1.8133365 1.3995515 -0.039025594 -0.5120518 0.5460804 0.18804978 1.0908732 0.035907734 0.47226742
feel 0.7381477 1.448873 0.716448 -0.76586765 0.17618497 0.2502138 -1.236053 0.5660992 0.3820051 -0.871016 2.8012733 -0.39270374 -0.29627842 0.22634125 0.4158244 -0.29877576 0.6092676 1.1022959 -1.1566657 2.3305576 -1.5941415 0.42284876 -0.7691435 1.0381097
ahneh -0.6989892 1.2199612 0.21722163 -0.77098423 0.1958199 0.13418101 0.7672581 -0.1325615 -1.11767 -1.4224811 1.1741657 1.9977677 -1.334629 -0.5030623 0.81188864 0.98298496 0.07344542 -0.1975414 -0.29140577 0.68492985 0.4795661 -1.6350613 -0.44459987 0.09615473
pata 0.3923659 0.975553 0.22893497 0.051912237 1.308892 -0.2363774 0.058709983 1.9092289 1.5881019 0.90531814 1.2810313 0.59227717 -1.625357 1.185642 -0.41388798 -0.5605904 -1.9189343 -0.50613606 -1.7190958 -0.3895523 -0.6854787 -0.12101302 -0.31105793 0.89219815
omg 0.784928 -1.2284275 -0.46764627 0.058135033 0.11736012 -1.13921 -0.41838595 0.39761075 -0.62052774 0.9923203 1.5363151 -0.13909674 -2.6687417 0.21730047 -1.5232915 -0.46209165 -1.4722912 1.0874047 1.3079342 0.604046 0.11046226 0.60751784 0.963016 0.54524994
gone 1.8125643 0.9056649 0.650374 1.7668542 -0.7758543 0.62387294 0.14923288 -0.12239541 -0.66932863 0.67465824 -0.8611918 0.5135495 -0.26775685 1.0995048 0.87509894 0.37550566 0.7936643 0.69713956 -0.029322572 -0.4094238 0.7038092 1.2275349 -0.54283327 1.3641425
during 1.974443 -0.8970887 1.411884 1.2933224 0.57866156 0.89394987 -0.67718154 -0.19568631 0.6691511 0.18652336 0.09048173 0.03555228 -0.28723118 -1.0423713 -0.025778724 -0.69559133 -0.42786375 0.46676192 -1.2654183 0.4485843 -0.93179685 -0.63309026 -0.39857346 -1.5595348
haven 0.27796972 1.3998741 1.133608 0.16511591 0.8745613 0.05602425 1.856952 1.2424544 0.07905707 -1.7028856 1.432396 1.3937343 0.5873145 -1.4748391 0.14632511 1.7305565 -0.65490776 -1.0167676 -0.95463187 0.59947 0.50440747 1.1230317 0.45222795 -0.3618085
being -0.67352194 -1.66673 -1.5309904 1.297345 -0.7328687 -2.056231 0.49085802 -0.9067341 0.18799543 0.68830943 -0.16543013 2.5313983 0.23804279 -2.795011 0.69505036 0.11339748 0.19983774 -1.0393728 -0.4278253 0.9867958 -0.0048461054 0.6255639 -0.4811244 -0.1126588
lotsa -0.38000745 0.50455374 1.5123663 1.2342784 -0.8134135 -0.8556236 -0.012178889 0.62053156 -0.3662496 0.6736347 -1.7169628 -0.45950896 -2.262855 0.9383434 -0.33188844 -1.0185645 0.2070632 0.45158166 -0.36287987 0.0011216361 0.048866272 1.8625647 0.17680632 -0.70758784
never 0.41414246 0.84734863 0.5866611 -0.46165588 -0.83077055 2.2655268 0.3456718 -1.2035365 -1.1927848 0.46969897 -1.1695102 -0.57117516 -0.011797179 0.37558064 -1.0208459 2.294783 0.66164196 0.3246887 0.36157864 -0.1722235 0.457448 0.2691591 0.04517505 0.15714747
facs -0.58377063 0.9023725 1.0381553 -0.9957642 0.37747195 -0.38797525 0.29406047 1.555184 -1.8059071 -0.9566999 -0.67547846 -0.94573927 0.33903676 -0.68380153 0.3136882 0.92239326 -0.5034213 0.27957425 1.2083124 -0.6304999 1.1204828 -0.6805599 0.100715734 1.2992253
gross 0.88011175 0.6129933 0.7901796 -0.8215324 -0.8499887 -1.7324343 -0.20117155 0.55177206 0.8345707 1.0078719 0.3716393 0.19673698 -0.16599521 1.6678667 0.28726396 -1.0655419 -0.1704707 1.3335619 -1.2060872 -0.07611654 0.5218177 0.5586702 0.99114853 0.9992173
projects 0.29084772 -0.1388951 -1.7649335 -1.1061772 0.47889793 0.59266835 -0.67220175 0.66176575 0.018931374 1.2955467 1.208121 0.61525685 1.5070909 -1.1898093 1.5360625 -1.6894084 -0.7790085 -0.5274381 1.1021532 -0.5122453 -0.9543259 0.7296224 -0.37078667 1.2638905
fts 0.85884905 0.42461511 0.8754925 0.061330106 -0.072631545 1.1313341 0.1719649 -1.5026873 -0.9627073 0.7070426 -1.0969564 -0.35534522 0.3091993 0.20884764 1.8430464 1.5258793 0.8341346 1.64896 -0.4337495 1.3351058 -0.81995475 -0.623334 -0.6854506 0.38650164
lecturers 1.28855 0.65471643 -1.2945327 1.0504426 0.68440485 0.3229412 -0.18757431 1.46466 -1.2764254 0.87179255 -1.2791913 0.024290234 1.298221 -0.01397839 0.27989405 1.0070562 0.89065504 -1.5621519 -0.30973932 -2.6889257 -0.5796841 0.008729728 0.028930683 2.0834224
front -0.5450936 0.4331057 0.029898992 -1.3763866 0.3232163 1.9282484 -1.1510011 1.5267545 -1.8744369 -1.2940652 -2.3190708 -0.23666495 2.1565645 -0.15195408 -0.05572739 -0.62464875 0.4631086 -1.2436225 -1.5480304 1.5964528 0.24418797 0.017905777 1.505767 -0.6932055
mee -1.4323102 1.7104939 0.4245354 -0.48055464 -0.6833633 -0.29047108 0.9155304 0.20023769 -0.6022947 0.26347408 -0.4937115 0.0030732458 0.9102525 0.013946807 -0.37194908 0.86564183 2.5692391 -1.33377 0.18565446 0.45711097 -2.1348803 -0.51712745 0.5982652 -0.91355693
loti 0.571013 0.087899856 -1.012485 1.5799768 -0.16387844 -0.06051205 -1.5738437 -0.2169505 0.068515025 -1.4386994 -0.13857038 0.03941158 0.9000646 0.73883766 -0.27758497 -1.9949772 1.8991071 -0.100046985 0.14559704 0.41881415 0.376397 0.8776072 -0.8308525 -0.06923107
store -2.1381543 0.5398351 0.22367537 0.24074884 -0.16049284 -0.2922305 -0.61639357 -0.38318303 -0.13664973 0.7463118 -0.8319188 -1.244185 -1.7253405 1.4551196 -0.25297326 2.2179115 0.022737488 0.49621472 1.1988231 -0.20372127 1.0306262 -0.030525217 -0.8449291 -1.6465758
ex -0.81733364 -0.90459514 -0.7841581 -0.78503907 1.46278 0.16081995 0.46832573 -0.14683938 -1.2059873 -0.9688771 1.3606809 -0.65082103 -0.028488869 0.545909 0.26121196 0.5264852 1.1134136 -1.3414408 0.24664773 -0.04123697 -0.6443002 1.0643011 -1.3196827 0.81525105
notch 0.940903 -0.5774031 0.5096429 -0.4704155 1.8961821 -2.3998797 -1.0506417 0.6621176 0.012719967 -0.57520026 0.6692208 -1.1051401 0.9818986 -0.5123277 -0.21089312 -0.33489332 -0.50511974 0.60140824 0.5386762 0.75987065 -0.12777023 -0.23811814 0.03045064 0.6207189
fast 0.23048693 -2.0108294 -0.40568805 -0.9787922 1.2822268 1.6543379 0.7303631 0.76572716 -0.549947 -1.0833468 1.5571746 0.86338234 0.5040434 1.4339386 0.87659246 -0.18569675 1.0116318 -2.2283695 0.3622867 1.1769332 -0.38478613 0.084546946 -0.48047897 -0.35497874
why -0.5457889 1.1609395 -0.21589442 -0.48651317 -1.078473 -0.39399132 -0.7407239 0.9981603 -0.80433905 -0.367681 -0.21310148 -0.4781671 -0.22544652 -1.1246942 1.0096712 -0.3013807 0.63260144 0.509018 -2.0269082 0.23965414 -0.19080904 -1.2597314 -1.3892937 -0.6674415
hard 1.034302 0.11502393 -0.033034503 2.2457783 0.9325705 -0.4739755 -0.7683915 1.1875288 -0.45033753 -1.182004 -0.55120236 -1.3016003 -0.9794473 0.09581907 -0.37888366 -0.11811645 0.62035656 0.08561706 -0.3446561 -1.1557622 0.9469798 0.26802784 0.11214184 0.013363792
looks -0.39239186 -1.4571984 1.9854666 -0.55739164 1.7325332 0.688182 -0.7092122 1.0326377 -0.19113691 -1.4140776 -0.15195058 -0.2791291 1.1918353 -0.44686633 0.4359936 -1.8260087 -0.27435556 0.24629402 0.17502521 1.308679 0.37812436 0.21561147 0.46410558 0.9015474
sole -0.5298428 1.7849401 -0.19701424 0.6810429 0.75062084 -0.6093907 0.9681067 -0.17609744 0.18520066 -0.43813455 1.1304274 -1.4408973 1.2588665 -1.1379333 0.6850839 1.078701 0.50152767 -0.79584545 0.14360483 1.3075467 -1.6885178 1.207234 -0.4173495 -1.3387642
the_davis 1.04977 -0.36309448 -0.19109884 1.0503956 -0.8211281 -0.25561798 -0.08366186 -1.7898189 1.47637 0.45062304 -2.0431585 0.008310774 -0.1565942 -1.8418858 -0.9134206 1.286903 -0.53710794 2.0925848 0.21385749 -0.4733571 -0.37306163 -1.0041783 0.39637727 0.27010435
leh -0.28152692 0.10524667 -0.45964503 -0.040589575 1.0174129 -0.45062777 -0.58501214 0.33970487 0.2515607 0.4075001 -0.31183657 -0.077123955 -0.029122377 -0.8169015 -0.754415 0.94633186 1.5281963 -1.0625731 1.7538832 0.7133794 -0.79864633 -0.055966616 0.43198946 1.2272823
eaten -0.12050804 -0.011406886 0.22797292 -2.13855 -0.49260595 1.7930208 1.668007 2.4678788 -0.9058343 0.69087154 1.3337774 -0.1634813 0.6669621 0.091673404 1.0753746 -0.042618107 1.7229517 -0.18014883 0.23999831 0.36266205 0.2460019 0.54469734 2.3597379 -1.1234128
cross 0.4166593 -1.1836858 -0.28296003 -0.54220337 -1.7713621 0.385572 -0.0378071 -0.16864257 -0.5539819 0.098418675 -1.7049731 0.70351154 0.6314707 -1.3334965 0.12793298 0.29022643 0.11126321 0.80720747 0.17231733 0.042860802 -0.49922398 -2.1460452 0.09515448 0.75037926
expensive -0.086959496 -0.44203293 1.2391907 0.14655936 -0.21268617 -0.57817376 -1.3390855 0.76528347 -0.012369809 -0.10221649 -1.0583836 -1.0301458 0.11139911 -0.0068467027 -0.37604433 0.96509767 0.42233434 -0.7742757 -0.33163863 0.199554 0.22598514 -0.0547405 0.62157106 0.09329009
byebye 0.34981036 -1.4637022 0.71663636 -1.3260188 1.0177547 -0.2208715 -0.6919835 -0.20473103 -1.3382306 1.0594496 -0.3388306 0.2787775 0.29600078 0.08275474 0.80340415 -0.61894447 -0.26085746 -0.9677513 -0.1939872 -0.8359005 -0.3843698 -1.3352506 2.2929375 -0.26512432
claypot 1.2504814 -0.54344994 2.4791505 0.80449665 0.19798702 -0.20818548 0.04159959 -0.7798113 0.67367506 -0.6617085 -1.7020637 0.040039882 -0.77276707 0.19168586 1.3046536 0.21195008 -0.91242653 -1.0390401 0.87873334 1.7613928 -0.5067325 0.69170433 0.39669004 -0.75672525
crap 0.89244884 -1.475026 0.01297828 1.5038582 0.27789083 -1.6921667 0.6836749 -0.05883408 -0.66689086 2.3607755 -0.15742289 0.63684124 -0.7190453 0.30000636 -1.0187715 1.0422262 -0.77247185 0.10594423 0.8397189 -0.7126775 -0.08011164 -1.1150327 -0.59034073 1.3247833
fren 0.4445358 -0.20882373 0.21794128 0.35961476 0.19010893 1.8114915 1.5580273 -0.6155225 -1.3678395 0.019598836 -0.88358575 -1.1421287 -0.5672316 1.2363056 -0.93375486 1.0973139 0.53387284 0.13289787 1.8637315 -0.7077311 0.41365403 0.1241882 -0.6594104 -0.1721521
lar 1.5393306 -2.2659762 -0.10218261 -0.44518957 0.64941126 0.46866152 -0.90206635 0.5028953 0.28850466 -0.4157344 0.9924141 0.21042645 0.23089953 0.8803507 -0.15660793 -1.7408453 0.82729256 1.03037 -0.7441243 0.38721424 -0.8143242 -0.8564027 -0.24672629 -1.3255603
yih 1.2419313 -0.26667866 -1.5274616 0.20456779 -1.2426795 0.18292096 0.015248011 -1.4227585 0.38668227 -0.043666348 0.13455974 -0.62115335 -0.14468797 0.34284616 0.5902558 -0.61822337 -1.6216094 -0.7045608 -0.04481998 -0.83275807 0.44467223 -0.46142125 -0.49940166 0.40383476
gryphon 1.454354 0.6283814 1.64236 1.6458576 -0.60631114 -0.623858 -0.11719396 0.26906022 0.0713071 0.49960294 -0.26721513 -1.7086279 -0.7059476 0.8299894 -0.22979215 1.4644495 0.16227692 0.23314439 -0.40848592 -0.7984091 -0.8328648 -1.8618668 0.5681888 -1.6856762
way 0.84416085 1.4246252 -0.6788236 -0.2880208 -0.70811003 -0.754503 0.91607106 1.4203973 0.14335132 -0.38362822 -0.62968147 -0.13348219 -0.55919576 0.48916525 0.1759062 1.3560251 -0.45323247 -0.8628372 -0.27654204 -0.7718859 0.55703336 0.99562615 -1.064379 -2.3501453
always -1.2956588 -1.235513 0.5213315 -0.018268937 1.9546312 0.3924418 1.4470241 0.19038248 1.2326856 -0.8497312 -0.70203006 1.1927735 -0.8901726 -1.2944762 0.25057688 0.81952494 0.073854305 0.4106125 -1.794585 1.0987856 2.4739363 0.3274887 0.0920683 -1.1323154
change -0.6343888 0.24293813 1.4309946 -0.40575665 -0.99526745 -0.16787308 -2.0131326 1.2488958 -2.0518138 -0.85463023 0.24202058 0.70032567 -1.6887597 -0.9718753 -0.61687577 -0.7687518 -0.56320524 1.0522479 0.37081575 -0.84474945 -0.1893164 0.069561034 -1.6446106 -0.41158867
beside -1.9451791 1.2194246 0.8419132 1.5248898 1.587023 1.5083945 -1.0876325 -0.3615725 0.61504567 -0.12168265 0.70731056 0.11607473 -0.26854956 0.23887864 -0.32992753 0.017113995 0.6306869 0.38409433 -0.25182325 -0.0283235 -0.75203985 -0.67538196 -1.6636343 -1.3791794
not -0.95039403 -0.51762956 -0.2162589 -0.6438842 1.2859938 -0.2007686 0.86832726 1.0990206 -0.87682253 1.3623086 0.6749056 0.2567647 1.2848285 0.05305276 -0.8530597 -0.34898096 0.27034214 -0.5770698 -0.003923055 1.0225054 0.88146013 -0.3985633 0.6884183 -0.7949027
cool -0.9428037 -0.90316266 -1.7445624 -1.5889072 0.04308851 -0.43202716 0.60250795 -1.2237892 -0.20734642 -0.45781162 -0.39063925 -0.1798865 -1.9252452 0.052684713 -1.3158991 -0.9109344 -0.10217549 0.21972488 -0.9684949 0.38126636 -1.002967 -0.7171786 1.4612055 -0.60778064
munchie 1.0537171 -0.7778324 -0.9281839 -0.21735522 -0.5392526 1.4348497 -1.9025662 0.4442961 -0.41832954 0.07582332 -0.8150003 -1.2961651 -0.48788235 -0.073041104 0.38734308 0.74304 1.7185291 1.8766783 -0.13335975 0.77838916 -0.19173886 -1.3523446 0.725616 1.7084877
foreign -0.29433277 1.2049099 0.18981907 1.0309215 -1.6982703 -0.41849095 1.4296857 0.09206715 2.0993347 2.1356485 -1.3704519 -1.3598132 -0.10848976 0.10326632 0.33967236 -1.2904938 2.3958516 0.33907005 0.12230465 1.378438 -2.164107 0.09133599 -0.014724931 -0.70104414
